tree
version=v4
num_class=1
num_tree_per_iteration=1
label_index=0
max_feature_idx=51
objective=quantile
feature_names=heatingType gardenOrientation kitchenType subType terraceOrientation epcScore postalCode_cat province isNewlyBuilt isNotarySale hasDoubleGlazing hasHeatPump hasPhotovoltaicPanels hasThermicPanels hasFireplace hasAttic hasBasement hasDiningRoom hasGarden hasLaundryRoom hasLift hasLivingRoom hasSauna hasSecureAccessAlarm hasSwimmingPool hasTerrace bathroomCount bedroomCount constructionYear facadeCount latitude longitude netHabitableSurface parkingCount roomCount showerRoomCount terraceSurface toiletCount property_age surface_per_bedroom construction_decade dist_brussels dist_antwerp dist_ghent dist_liege dist_bruges dist_charleroi dist_namur medianSellPrice riskMonetaryPoverty totalPopulation commune_median_eur_per_m2
feature_infos=-1:3:6:2:1:4:7:5 -1:7:4:6:5:8:0:3:2 -1:8:1:0:3:2:5:4:7 -1:11:22:1:16:7:2:20:15:5:4:8:14:17 -1:7:4:6:5:0:8:3:2 -1:4:3:7:5:0:6:9:8:1 -1:960:972:929:200:988:1032:217:154:1005:865:321:1015:978:1026:130:885:860:221:174:993:1048:18:980:181:302:872:1016:341:171:4:219:214:137:294:867:135:190:975:6:862:937:2:267:189:946:65:148:205:890:102:85:199:187:964:193:1041:124:986:332:992:1040:1009:249:999:164:220:967:1000:46:915:861:241:197:188:224:242:979:75:353:291:868:179:208:15:89:707:983:1019:925:1059:129:136:981:226:192:198:204:1002:209:873:70:142:880:0:889:976:977:212:393:150:222:290:909:253:898:175:987:991:182:218:971:172:123:138:211:342:106:650:100:1037:76:246:892:886:931:45:196:923:1035:295:132:162:315:914:229:1036:264:301:1038:216:313:346:406:143:215:970:1012:331:887:147:863:961:94:107:250:394:940:256:968:1007:118:206:338:866:330:700:879:20:101:296:297:1033:982:984:1:19:163:869:91:99:151:884:225:871:261:403:11:177:278:292:899:1017:54:134:223:178:248:965:276:281:907:464:115:5:35:207:227:254:308:1025:22:882:962:98:140:170:176:270:156:908:963:127:299:328:262:305:343:395:119:1027:128:921:985:191:919:64:120:194:149:230:410:7:110:113:333:340:883:1050:3:27:69:165:243:990:183:213:251:910:938:195:407:111:117:337:989:14:125:359:881:144:203:210:272:307:327:334:487:78:185:326:39:300:309:282:563:893:927:959:10:95:103:820:913:969:16:40:41:96:271:1045:9:17:51:56:324:920:926:947:38:114:259:268:293:303:423:440:168:186:238:934:155:236:239:314:360:675:79:104:500:697:936:167:252:381:507:511:928:1006:354:481:875:1034:87:202:517:601:916:28:42:86:88:139:347:664:739:891:930:932:1028:1031:1042:1049:310:669:956:90:131:133:141:160:166:263:284:298:383:553:747:902:974:1043:1060:12:74:122:240:247:652:699:273:428:495:576:583:607:717:746:21:255:339:409:588:778:30:231:336:411:545:973:1022:1055:62:67:71:112:385:504:843:228:515:537:80:81:158:564:656:691:725:933:244:286:345:352:486:561:844:924:152:153:355:378:518:577:611:922:1051:180:234:369:438:538:584:635:690:723:724:939:26:37:373:397:417:424:565:602:604:667:864:93:404:413:445:489:516:539:589:647:695:945:995:1058:73:77:105:161:232:367:482:485:569:672:745:826:8:13:66:108:283:405:465:497:696:713:917:1001:49:173:237:245:546:597:679:683:756:121:201:260:279:304:398:414:421:508:608:612:640:662:668:673:722:727:1004:1052:1053:1054:116:265:344:592:596:653:663:709:755:832:836:845:918:146:157:365:390:408:455:479:519:523:547:549:582:610:674:708:773:835:850:942:25:233:258:416:475:552:744:813:935:1003:24:31:33:50:257:361:462:488:676:738:834:888:895:943:1039:23:306:312:323:350:356:362:372:388:466:578:617:719:771:957:966:998:97:349:351:357:391:437:490:513:558:594:606:631:645:706:714:752:838:911:944:63:82:415:432:456:459:514:572:573:581:793:855:870:948:954:997:1011:72:145:266:275:329:335:443:467:468:568:580:616:633:657:658:666:743:766:768:816:29:32:48:325:374:384:427:501:554:571:586:590:609:732:748:749:770:801:821:856:877:912:941:1014:1021:92:126:366:371:442:476:484:494:496:503:566:585:632:659:698:729:736:753:757:758:777:808:851:901:952:36:53:287:289:348:358:370:396:399:448:469:483:491:509:525:574:579:587:619:649:671:705:754:759:767:822:827:848:894:1018:52:68:159:184:269:322:377:382:412:446:473:477:493:510:524:533:593:615:626:627:654:689:701:718:726:734:735:741:750:762:765:806:842:878:896:904:994:34:47:58:277 -1:1:8:7:2:0:3:5:6:4 [0:1] [0:1] [0:1] [0:1] [0:1] [0:1] [0:1] [0:1] [0:1] [0:1] [0:1] [0:1] [0:1] [0:1] [0:1] [0:1] [0:1] [0:1] [0:14] [0:18] [1753:2026] [1:4] [49.5074811:51.5013729] [2.5773082999999999:6.3517688999999997] [11:1960] [0:19] [0:59] [0:10] [0:6015] [0:14] [0:200] [3.6666666666666665:889] [1800:2020] [0.21749388849523946:178.49047952023446] [0.19232721767954483:210.98169038325386] [0.15354751635913802:224.4562497316625] [0.11539256986880815:216.78389357271431] [0.078935741364383916:260.87975304192452] [0.041677380311432075:151.57820250897907] [0.082928548591186868:175.61130221663458] [82000:850000] [4:315] [1071:562002] [401.60642570281124:6685.393258426966]
tree_sizes=8223 9641 8965 9889 9904 8737 8567 8926 8472 9643 8855 8228 9945 8376 9887 8955 9600 9936 8924 9584 9360 10753 10159 9912 9761 9378 9427 9350 10771 11173 9229 11065 9740 10163 9084 10855 10532 9392 9311 10164 8465 11150 8975 10299 9824 9444 10308 9931 10105 9714 10753 10043 9288 10629 9639 8450 10095 9836 9458 9866 9300 8678 8812 8862 8710 8877 8945 9043 7310 7541 10696 9345 7654 10603 8790 7873 9393 9049 9212 7882 8456 8212 10657 9605 8835 8602 8768 9489 7813 10296 9513 8937 9186 8608 10893 8524 9001 8986 8258 8434 8201 9203 8955 9415 8291 11060 9755 9666 8088 9509 8465 9445 8059 9907 9205 8789 8283 9554 8155 6967 9079 8222 7276 9756 7742 7499 10515 6834 9468 9081 10132 8736 10435 7643 7591 7003 8195 7872 9913 9091 8424 8052 9486 7293 8386 7915 6665 9208 8177 6480 9423 7485 6367 8942 8241 7336 9002 8333 6988 7719 7560 7834 9100 9384 9194 9593 7472 6395 8792 6604 7475 9504 8478 8506 6837 6640 7057 9680 9465 9389 8188 8982 8765 6933 7076 7502 8085 7087 7494 8790 9658 8001 8427 7796 7446 8080 7406 7958 8290 9133 7853 7711 9120 6483 10190 7754

Tree=0
num_leaves=76
num_cat=10
split_feature=32 30 6 32 48 38 32 48 38 5 38 5 33 32 48 31 37 32 6 38 5 32 30 47 32 38 32 31 38 48 41 32 30 50 43 43 39 33 48 38 32 48 51 38 30 6 45 51 31 51 39 38 41 32 51 25 32 43 34 5 6 32 50 5 38 38 38 6 39 38 51 51 39 39 32
split_gain=139.834 55.5055 46.0597 30.9907 20.6908 15.4895 14.9294 16.5867 23.3368 20.0189 14.0491 11.4348 16.0236 10.4745 9.56161 9.2686 9.10015 8.73483 7.07412 11.4384 8.01053 7.63142 6.58318 6.12 6.16616 5.86679 5.31385 4.93253 4.70228 4.43356 3.74758 3.19885 3.2291 2.76736 3.45161 2.59837 2.36224 2.06271 1.65711 2.84141 5.52218 1.57026 1.53058 1.43861 2.45133 1.23172 2.02045 1.17047 1.01861 0.929743 0.908851 0.873098 0.835525 0.764829 1.15289 0.603188 0.59401 0.933831 0.481194 0.418046 0.379635 1.51766 0.377583 0.813171 0.309049 0.264133 0.426186 0.215157 0.207392 0.20716 0.0882087 0.0810388 0.0287132 0.0259277 0.0190113
threshold=79.500000000000014 50.729282450000007 0 124.50000000000001 189200.00000000003 69.500000000000014 124.50000000000001 312000.00000000006 75.500000000000014 1 71.500000000000014 2 1.0000000180025095e-35 68.500000000000014 318750.00000000006 3.8103398500000005 1.5000000000000002 200.50000000000003 3 90.500000000000014 4 193.50000000000003 50.504501200000007 56.853185732302023 144.50000000000003 71.500000000000014 60.500000000000007 4.1346930500000001 62.500000000000007 288000.00000000006 80.175381728501819 98.500000000000014 50.78586640000001 38466.500000000007 41.872040132222928 70.838801089300077 47.94444444444445 1.0000000180025095e-35 285375.00000000006 72.500000000000014 174.50000000000003 229500.00000000003 1985.843119238642 107.50000000000001 50.226722250000002 5 78.024520105975924 1575.4560406698567 4.5193516000000011 1401.1643490543747 76.708333333333357 73.500000000000014 70.248120623269855 147.50000000000003 1530.6907378335952 1.0000000180025095e-35 140.50000000000003 135.00357617788367 7.5000000000000009 6 7 133.50000000000003 18244.000000000004 8 95.500000000000014 125.50000000000001 134.50000000000003 9 36.050000000000004 125.50000000000001 3000.2976190476197 1348.2817303469481 92.062500000000014 118.16666666666667 167.50000000000003
decision_type=2 2 9 2 8 2 2 10 2 9 2 9 2 2 10 2 2 2 9 2 9 2 2 2 2 2 2 2 2 8 2 2 2 2 2 2 10 2 10 2 2 8 2 2 2 9 2 2 2 2 10 2 2 2 2 2 2 2 2 9 9 2 2 9 2 2 2 9 10 2 2 2 10 8 2
left_child=1 13 3 5 10 37 7 8 49 15 53 12 17 41 26 -10 23 25 19 51 55 -22 48 24 -12 -5 -3 -11 -15 42 -27 -24 47 34 -16 70 -18 -2 39 67 -41 43 -28 44 -1 46 -9 -33 -7 -6 58 68 -53 54 -4 -21 57 -13 69 -51 61 -40 63 -47 -48 72 -67 -20 -8 -14 -36 -62 -58 -64 -55
right_child=2 14 4 11 6 22 18 45 9 27 16 56 50 28 33 -17 36 -19 38 20 21 -23 31 -25 -26 30 29 -29 -30 -31 -32 32 -34 -35 35 -37 -38 -39 60 40 -42 -43 -44 -45 -46 62 64 -49 -50 59 -52 52 -54 74 -56 -57 65 -59 -60 -61 71 -63 73 -65 -66 66 -68 -69 -70 -71 -72 -73 -74 -75 -76
leaf_value=11.720923678101133 11.866755972684208 11.833793984724746 11.870295813714671 11.957342466290989 11.853650491083208 11.887661492690571 11.918903922538091 11.923881904818082 11.807550773657779 11.936031646681005 11.842133073181282 11.963152632819378 11.970997764420877 11.801594820079222 11.928848163507691 11.90058978382282 11.943524371072197 11.92338290552987 11.964399368280716 11.908039633582659 11.893268024123124 11.918944628387683 11.88619985392906 11.90857160691343 11.824276811196675 11.908061969007795 11.899947666972604 11.928935241739543 11.883906985033441 11.906050919890731 11.872498563278915 11.845619222322807 11.907383541048427 11.977193551156688 11.97163461577415 11.90618142841643 11.92287111883998 11.970997764420877 11.853912551128724 11.941562037626156 11.977193551156688 11.83944678221291 11.859427861637618 11.863164609171255 11.760409408627417 11.942412109214985 12.001647713129488 11.941562037626156 11.899947666972604 11.954376467221453 11.879891593948265 11.941824975559355 11.927739607491942 11.81793145642396 11.97163461577415 11.960799009747918 11.980737405158118 11.942412109214985 11.918681694802316 11.986382171130709 11.968409671820631 11.99172972688854 11.983809675775523 11.980737405158118 11.932671360317853 11.899960986426416 11.983033131256361 11.993792276654666 11.994047152819931 11.942412109214985 11.964399368280716 12.010682981157627 11.954376467221453 11.905860940431682 11.976919334916738
leaf_weight=60.466666698455811 42.5666663646698 77.033333778381348 40.355555653572083 47.033333778381348 54.222222566604614 53.711111068725586 74.911111235618591 45.066666603088379 120.1555552482605 303.57777917385101 86.611111879348755 72.222221732139587 170.04444468021393 53.655555605888367 51.811111330986023 292.31111013889313 71.799999952316284 76.400000691413879 253.55555593967438 68.333333611488342 206.37777757644653 117.95555555820465 76.922222256660461 45.800000190734863 60.566666722297668 57.05555534362793 36.244444489479065 408.12222290039062 61.0333331823349 51.311111330986023 93.288889169692993 53.677777647972107 42.788889169692993 141.61111176013947 65.444444417953491 37.166666865348816 67.188889026641846 77.322222113609314 114.07777774333954 977.32222366333008 1811.9333317279816 82.133333683013916 54.577777504920959 71.055555701255798 37.977777600288391 193.53333306312561 94.877778172492981 55.422222137451172 41.766666412353516 416.24444389343262 50.555554986000061 128.33333325386047 81.133333086967468 42.166667103767395 40.911110877990723 213.95555531978607 534.30000007152557 44.44444465637207 76.833333134651184 664.34444439411163 43.066666841506958 1759.4666699171066 2053.5333338975906 455.45555567741394 64.555555582046509 45.111111402511597 57.766666650772095 4715.1333345174789 1086.4888899326324 46.555555820465088 39.688889265060425 36174.733352780342 42.233333110809326 44.777777194976807 172.82222247123718
leaf_count=36 20 37 22 25 26 28 34 21 62 154 42 37 84 28 25 149 35 39 130 33 96 59 36 23 28 28 19 202 31 27 46 28 24 71 33 21 35 42 60 502 907 39 29 32 20 105 50 30 20 224 25 62 44 21 26 104 267 24 43 341 22 906 1055 232 31 26 31 2430 559 25 20 18508 24 20 84
internal_value=11.9703 11.931 11.9709 11.9553 11.9715 11.9318 11.9717 11.9665 11.96 11.9496 11.9532 11.9625 11.9523 11.9004 11.9513 11.9321 11.9388 11.9337 11.9723 11.9663 11.9547 11.9442 11.9203 11.9246 11.9347 11.9224 11.9348 11.9605 11.9259 11.9465 11.9126 11.9297 11.9383 11.9621 11.9542 11.9624 11.9587 11.963 11.9725 11.9712 11.9686 11.8888 11.96 11.883 11.8914 11.9716 11.9641 11.9476 11.8978 11.9703 11.9666 11.9715 11.9654 11.9692 11.9609 11.9678 11.9707 11.964 11.9688 11.9709 11.9728 11.9714 11.9721 11.97 11.9692 11.9718 11.9671 11.9726 11.9725 11.9712 11.9706 11.9729 11.9727 11.9728 11.9724
internal_weight=56445 921.211 55523.8 1858.02 53665.8 444.178 53037.6 5210.78 2258.98 1124.17 628.222 1413.84 617.767 366.322 554.889 412.467 331.967 273.778 47826.8 1977.49 606.622 324.333 324.289 192.978 147.178 197.378 219.167 711.7 114.689 142.133 150.344 228.811 151.889 335.722 194.111 142.3 138.989 119.889 45849.3 7757.94 2789.26 251.633 90.8222 169.5 98.4444 2951.8 204.5 109.1 95.4778 1134.81 343.989 1370.87 209.467 296.256 81.2667 282.289 796.078 116.667 293.433 1080.59 38091.3 1873.54 2747.3 648.989 159.433 679.411 102.878 4968.69 1161.4 216.6 105.133 36217.8 576.533 2098.31 214.989
internal_count=28864 468 28396 952 27444 228 27128 2672 1158 567 316 724 315 186 282 211 163 138 24456 991 292 155 166 93 70 99 112 356 59 75 74 118 82 170 99 74 70 62 23465 3969 1409 127 48 88 56 1514 102 58 48 591 177 699 106 153 48 137 409 61 152 565 19496 966 1412 337 81 348 57 2560 593 109 53 18530 291 1075 105
cat_boundaries=0 30 31 32 65 66 98 99 132 133 165
cat_threshold=0 0 0 0 0 0 0 0 0 0 71303168 67108874 8391680 128 0 0 134217728 2621956 2182095040 0 134217728 50331648 2097664 2048 32 0 0 0 268435520 786944 384 960 0 32 0 0 4096 0 0 0 100663296 32768 0 131200 512 2 65536 134217856 8 0 0 12 16777216 134219776 0 0 1024 1048576 0 810024960 2099200 2415921408 0 8388608 131072 56 0 0 2 0 0 16384 8320 0 0 0 0 0 0 0 0 0 0 0 0 0 0 0 0 0 0 0 0 512 0 0 0 2 448 0 8 0 1024 0 2048 0 0 16384 8 0 0 0 0 0 0 0 0 0 0 0 8 0 0 0 0 536870912 131072 16777216 8 150994944 16777216 4 128 0 0 0 0 0 0 0 0 0 134348800 2097152 0 0 0 0 0 0 0 0 0 0 0 0 0 0 0 0 0 0 0 0 16384
is_linear=0
shrinkage=1


Tree=1
num_leaves=86
num_cat=9
split_feature=32 48 6 32 28 32 5 48 28 44 28 16 25 5 7 6 28 32 33 42 32 28 28 16 28 32 50 32 39 37 36 48 5 28 32 26 46 25 50 48 29 39 36 49 30 31 51 48 51 48 51 28 46 43 51 32 28 48 46 43 28 6 32 39 39 2 39 41 43 28 50 37 34 29 27 39 28 32 48 5 43 51 51 32 27
split_gain=88.3471 58.6171 23.6971 23.5139 20.9952 14.7936 10.819 10.3754 9.7288 9.76593 7.68028 7.53237 6.82872 6.67218 8.19347 6.21551 12.3576 15.4406 6.09766 5.9849 5.05703 4.66909 4.63547 6.81808 4.03075 3.8043 3.05532 3.13636 2.97645 2.72898 2.72273 2.66019 4.40861 4.29603 6.09669 2.96045 2.42509 2.36443 2.2797 2.15513 3.45668 2.08718 2.07106 2.04472 1.68724 1.62313 1.57704 1.51672 1.46418 1.40022 1.39551 2.41628 1.35148 1.33723 1.30159 2.10529 1.15432 0.987606 0.917414 0.710258 0.686964 0.651033 2.78546 2.33588 0.641678 0.568292 0.541656 0.314365 0.456947 0.294608 0.227157 0.218492 0.409088 0.180071 0.169409 0.330771 0.157417 0.118077 0.789631 0.110465 0.337115 0.102578 0.0843478 0.0309525 0.0162441
threshold=98.500000000000014 260250.00000000003 0 60.500000000000007 1918.5000000000002 150.50000000000003 1 189200.00000000003 1954.5000000000002 109.0472998984887 1955.5000000000002 1.0000000180025095e-35 1.0000000180025095e-35 2 3 4 1950.5000000000002 140.50000000000003 1.0000000180025095e-35 90.086211384277888 81.500000000000014 1921.5000000000002 1970.5000000000002 1.0000000180025095e-35 1899.5000000000002 123.50000000000001 27463.500000000004 183.50000000000003 49.916666666666679 1.5000000000000002 19.500000000000004 285375.00000000006 5 1873.5000000000002 169.50000000000003 1.0000000180025095e-35 69.623109220893056 1.0000000180025095e-35 29055.500000000004 324625.00000000006 2.5000000000000004 22.633333333333336 7.5000000000000009 97.500000000000014 50.614525050000005 5.2389315500000011 2292.2509425262419 303000.00000000006 1348.2817303469481 184250.00000000003 2115.4555538358359 1944.5000000000002 61.081722044070098 73.225260101990401 1226.5175531290363 207.50000000000003 1900.5000000000002 271000.00000000006 57.41689010704048 43.296134562096356 1948.5000000000002 6 124.50000000000001 56.366666666666674 44.928571428571438 7 92.062500000000014 80.175381728501819 74.259558898993802 1947.5000000000002 76796.500000000015 1.0000000180025095e-35 4.5000000000000009 2.5000000000000004 2.5000000000000004 69.690476190476204 1929.5000000000002 109.50000000000001 304250.00000000006 8 86.589575796108662 1401.1643490543747 2521.3239794997889 127.50000000000001 4.5000000000000009
decision_type=2 8 9 2 2 2 9 8 2 2 2 2 2 9 1 9 2 2 2 2 2 2 2 2 2 2 2 2 8 2 2 10 9 2 2 2 2 2 2 10 2 8 2 2 2 2 2 8 2 10 2 2 2 2 2 2 2 8 2 2 2 9 2 10 10 9 8 2 2 2 2 2 2 2 2 10 2 2 10 9 2 2 2 2 2
left_child=1 3 5 42 12 6 10 8 9 25 11 -2 44 14 50 16 17 19 22 36 46 43 23 -6 28 -4 27 -19 30 -21 -7 32 33 34 -17 -35 -9 -23 -13 40 -22 -15 49 -8 -5 -45 47 -16 -27 -1 51 -3 -20 59 55 -34 -50 -43 -30 -52 -39 62 63 -33 -54 -56 79 -59 82 -64 -28 72 -18 -10 75 -73 -61 78 -63 80 -26 -79 -69 -76 -82
right_child=2 13 7 4 18 24 21 15 73 -11 -12 38 -14 41 20 31 71 26 52 29 39 37 -24 -25 66 48 70 -29 58 -31 -32 61 54 35 -36 -37 -38 60 -40 -41 -42 57 -44 45 -46 -47 -48 -49 56 -51 53 -53 64 -55 65 -57 -58 67 -60 76 -62 77 69 -65 -66 -67 -68 68 -70 -71 -72 74 -74 -75 83 -77 -78 81 -80 -81 84 -83 -84 -85 -86
leaf_value=-0.18461009699984393 -0.072509377245163084 -0.035137392833585315 -0.094167349105742759 -0.075608408771573099 -0.1516192616792765 -0.067856580632959032 -0.0057967960853316219 -0.054518131188207454 -0.048960028179676776 -0.063407604639965809 -0.05630215895646426 -0.018861645630158106 -0.073133653756046052 -0.016644485149660385 -0.072342181958093499 -0.060048413321534558 -0.0024584903066647008 -0.077476221818578397 -0.035630778965805548 -0.063477002206866695 -0.060512925846995004 -0.063257098837579004 -0.081854896456005188 -0.061481701920253658 -0.011692464321860366 -0.060848451916177888 0.0025599084522009139 -0.0095472377650610458 -0.015328225572720969 -0.025106195443082405 -0.0030740190456973663 -0.0069442437637308859 -0.024492592483645992 -0.14858476455166345 -0.041560399503994067 -0.0060580006001948981 -0.039143342033051455 -0.0066176357487610421 -0.060731394470123587 -0.02537007374418504 -0.050080389396177767 -0.044430152756629052 -0.096303732930252142 -0.074295243303161909 -0.10010538288074365 -0.043278205364481147 -0.040953615517311789 -0.086763271074841108 -0.037586584153275565 -0.24429551437413069 -0.056327805431286453 -0.08154509741128628 0.006026812993515691 -0.076351188566895503 -0.010561557721356125 0.0096048603691842281 0.00057572836516037434 0.006039475894916992 0.021123106303475681 -0.062238222334576522 0.0026528863245976228 -0.028060422373485008 -0.0034066122698140993 -0.025833135169116919 -0.034187965949532682 0.016167019410655334 -0.042202412257169336 0.00057463392342337472 -0.06525889260517316 0.035527762162153649 -0.050471526806032938 -0.056678923614257588 -0.01075387538838363 0.0047394833740030924 -0.012458901899969567 0.011614189399707578 -0.0009623262321329665 -0.0017494657396959123 0.0049916079430082048 0.022889264703925771 0.0003184430443066133 0.033602490234245198 -0.0053524025700126881 0.021040801106692375 -0.10530007765623346
leaf_weight=49.533333420753479 72.144444465637207 44.288889169692993 44.077778220176697 57.888889193534851 55.033333659172058 45.511110901832581 40.755555391311646 50.933333277702332 76.98888897895813 60.611111044883728 48.222222089767456 45.44444465637207 80.022222757339478 44.688889026641846 44.588889360427856 51.477778077125549 106.53333353996277 143.63333284854889 51.999999523162842 123.15555512905121 62.211111187934875 60.877778053283691 44.411111116409302 80.611110925674438 49.066666841506958 46.677778005599976 395.71111083030701 117.54444408416748 47.388889074325562 48.466666340827942 41.877777695655823 241.09999942779541 66.577777743339539 112.24444460868835 51.566666841506958 1309.6666665077209 53.99999988079071 46.211111187934875 50.177777528762817 75.799999594688416 55.46666693687439 57.699999690055847 40.933333277702332 48.088889002799988 50.766666650772095 41.733333945274353 41.877777814865112 44.144444465637207 58.51111102104187 64.255555510520935 54.911111354827881 53.977777719497681 98.699999690055847 53.988889098167419 739.04444479942322 89.111110806465149 93.477778315544128 493.95555639266968 69.277777910232544 63.555555105209351 172.91111075878143 100.85555553436279 675.99999892711639 40.733333230018616 44.188888669013977 5623.4888935089111 73.04444408416748 78.100000262260437 41.411110997200012 2291.1333420276642 54.933333396911621 54.799999594688416 77.333333492279053 232.60000038146973 148.39999973773956 91.9666668176651 217.41111135482788 33.888889074325562 627.15555489063263 430.88888943195343 113.52222168445587 36914.466682195663 43.022222399711609 1565.4222232103348 44.133333325386047
leaf_count=25 38 24 23 30 29 23 19 25 42 32 27 21 40 22 23 25 56 72 25 62 30 29 25 39 28 23 195 63 24 27 21 121 36 53 26 675 27 22 27 38 28 29 24 23 23 25 22 22 26 31 27 30 51 27 377 44 44 251 35 32 95 55 344 22 22 2872 41 38 22 1173 26 29 41 117 74 41 113 18 320 223 57 18904 23 789 22
internal_value=0.000404279 -0.0191404 0.0012306 -0.0431741 -0.0335244 -0.0111436 -0.0232378 0.00159495 -0.0115415 -0.0244638 -0.0412581 -0.0534266 -0.0611481 -0.00814769 -0.0144655 0.00175014 -0.00270723 -0.0120406 -0.0195995 -0.0324011 -0.0268955 -0.0124359 -0.0330672 -0.0423823 -0.00297779 -0.0153304 -0.00412353 -0.012861 -0.0155545 -0.0206781 -0.029709 0.00202636 0.000337905 -0.00456111 -0.0245998 -0.00313782 -0.0515011 -0.00533298 -0.0346183 -0.0172713 -0.0258651 -0.00117763 -0.0782408 -0.0285869 -0.0777437 -0.037138 -0.0431617 -0.0508494 -0.00931908 -0.085387 -0.00583129 -0.0167575 -0.00713609 -0.00321972 0.00148887 -0.00767947 -0.00447176 0.000141928 -0.00492011 -0.000830147 -0.000405957 0.00235868 0.000968647 -0.00867552 -0.00202264 0.0017158 0.000636512 0.00126329 -0.0026094 0.0018885 0.000943463 0.00179234 -0.00154657 0.00112758 0.00212248 -0.00118799 0.00123675 0.00247763 0.00119645 0.00158652 -0.000378708 0.00250353 0.000543638 0.00240614 0.00189223
internal_weight=56445 2289.44 54155.6 718.344 563.622 1541.28 626.567 52614.3 612.944 303.356 215.989 167.767 188.678 1571.1 812.222 52001.3 3032.83 988.378 374.944 276.556 324.089 410.578 180.056 135.644 914.711 242.744 711.822 261.178 204.056 171.622 87.3889 48968.5 8043.18 1524.96 103.044 1421.91 104.933 280 95.6222 193.478 117.678 758.878 154.722 130.578 108.656 89.8222 130.611 88.7333 198.667 113.789 488.133 98.2667 194.889 389.867 6518.22 155.689 151.989 714.189 116.667 335.878 219.122 40925.3 3248.97 281.833 142.889 6362.53 710.656 656.489 162.533 2967.13 450.644 2044.46 183.867 309.589 1860.59 146.767 280.967 37676.4 728.011 637.611 206.722 36948.4 121.122 1713.82 157.656
internal_count=28864 1165 27699 364 284 800 326 26899 307 148 113 86 93 801 416 26592 1527 497 191 141 163 213 93 68 474 116 356 135 103 89 44 25065 4108 779 51 728 52 146 48 96 58 385 80 67 53 48 67 45 93 56 253 54 98 199 3329 80 70 363 59 172 117 20957 1660 143 73 3249 371 334 83 1517 221 1030 97 159 933 70 145 19297 375 330 107 18922 61 863 79
cat_boundaries=0 30 31 32 33 65 66 98 99 100
cat_threshold=0 32 0 0 0 0 0 0 0 0 37748736 67108866 12585984 0 65536 0 134217728 2621952 2181046465 134217732 0 16777216 512 2048 1024 0 0 0 270532672 786432 896 960 131 0 0 0 0 0 0 8 0 100663296 32768 75497472 0 524288 2 0 2 24 0 0 8 150994944 134219776 8192 512 0 1048576 0 272629760 1050624 2415919882 0 8396800 384 0 136 0 1024 16384 2048 8320 536870912 0 8 0 0 0 0 0 0 0 0 0 0 0 0 0 0 0 0 0 393216 0 0 1023934464 16778241 12 960
is_linear=0
shrinkage=0.10158


Tree=2
num_leaves=79
num_cat=12
split_feature=32 43 6 32 28 32 48 28 31 48 18 35 44 25 10 32 28 50 48 39 25 10 5 30 6 5 28 28 41 44 5 48 28 28 28 48 48 5 27 32 30 28 43 10 5 39 39 39 28 28 28 32 36 28 50 6 28 32 39 50 5 46 7 50 39 32 43 39 48 2 28 27 6 32 41 47 43 43
split_gain=70.4994 32.7402 31.7521 21.4163 13.7979 10.306 14.1534 12.4986 7.28389 7.91965 5.80814 5.64287 5.56471 5.53595 5.18568 5.92779 5.94061 4.43519 4.13939 3.27686 3.26607 4.12976 3.25562 3.60015 3.03959 4.98006 4.33578 2.99433 2.95187 2.4973 2.15886 3.77102 6.08586 2.15591 1.8237 1.53846 1.39597 2.52427 2.32797 1.13565 2.57972 1.045 1.47508 0.873271 0.808273 1.12141 0.874162 0.746526 0.637565 1.23963 0.508167 0.721585 0.456174 0.436602 1.01172 0.429743 1.2069 2.06398 0.407692 0.386923 0.594311 0.38224 0.257102 0.252392 0.225409 0.221429 0.11016 0.109406 0.946894 0.0976579 0.217384 0.0686677 0.0598433 0.0530398 0.0354941 0.0271963 0.0208828 0.016717
threshold=68.500000000000014 74.259558898993802 0 125.50000000000001 1924.5000000000002 130.50000000000003 285375.00000000006 1957.5000000000002 4.3570229000000005 236000.00000000003 1.0000000180025095e-35 1.0000000180025095e-35 60.105809485067418 1.0000000180025095e-35 1.0000000180025095e-35 199.50000000000003 1957.5000000000002 31190.500000000004 348250.00000000006 45.775000000000006 1.0000000180025095e-35 1.0000000180025095e-35 1 50.440787600000007 2 3 1919.5000000000002 1970.5000000000002 78.772876034448728 20.589749843015561 4 320750.00000000006 1917.5000000000002 1932.5000000000002 1953.5000000000002 301000.00000000006 225375.00000000003 5 2.5000000000000004 90.500000000000014 50.519175449999999 1948.5000000000002 48.86968213379123 1.0000000180025095e-35 6 45.607692307692311 40.062500000000007 39.916666666666679 1899.5000000000002 1898.5000000000002 1909.5000000000002 202.50000000000003 5.5000000000000009 1970.5000000000002 31689.500000000004 7 1950.5000000000002 173.50000000000003 73.708333333333357 5531.5000000000009 8 91.68268727848438 9 5531.5000000000009 36.050000000000004 81.500000000000014 51.144935464216296 59.916666666666679 298125.00000000006 10 1926.5000000000002 2.5000000000000004 11 143.50000000000003 71.485134512822654 25.939154058421995 24.343331626845423 135.78546472529095
decision_type=2 2 9 2 2 2 8 2 2 10 2 2 2 2 2 2 2 2 10 10 2 2 9 2 9 9 2 2 2 2 9 10 2 2 2 10 8 9 2 2 2 2 2 2 9 8 10 10 2 2 2 2 2 2 2 9 2 2 8 2 9 2 1 2 10 2 2 10 8 9 2 2 9 2 2 2 2 2
left_child=1 18 3 4 10 6 7 8 9 17 19 20 34 -11 15 16 -5 -4 27 -2 -3 -22 61 -24 25 26 28 -1 -7 -13 31 32 35 -34 47 -8 37 38 -26 40 -9 42 -28 -40 45 46 -16 -6 49 -33 51 -27 -43 54 -41 56 57 -38 74 60 -57 -10 -61 -46 -52 -50 -20 -32 -69 70 -39 -65 -58 -66 -47 -73 -70 -36
right_child=2 11 5 14 12 24 30 39 22 13 -12 29 -14 -15 44 -17 -18 -19 66 -21 21 -23 23 -25 36 50 41 -29 -30 -31 67 48 33 -35 77 -37 55 69 43 53 -42 52 -44 -45 63 58 -48 -49 65 -51 64 -53 -54 -55 -56 59 72 -59 -60 62 -62 -63 -64 71 73 -67 -68 68 76 -71 -72 75 -74 -75 -76 -77 -78 -79
leaf_value=-0.047855611362290086 -0.066233556748028471 -0.082735541168154181 -0.049897855405380658 -0.092324961193523139 -0.025310052900199328 -0.061350049693140354 -0.025210044136907528 -0.081640249236796733 0.0020002583413487427 -0.053615097297846019 -0.053535031981894077 -0.19165747222818533 -0.13621777420398756 -0.014096318276791102 -0.028353882017507753 0.018636682420917986 -0.0052668070229154665 -0.059858151128999178 -0.051855155513417621 -0.067928105175416698 -0.086521197913782086 -0.051027563451576309 -0.084601827998661117 -0.034263059289509692 -0.080159257207374199 -0.064171102241199832 -0.018190570873018026 -0.014953738032665516 -0.060963707886057206 -0.19997962382718779 0.02447275562382888 0.0016254981075849544 -0.047616282115532094 -0.0083591712328299605 0.0045362152829486972 -0.061994192492494667 -0.030119293383972373 -0.05772720312895771 -0.057384319044760108 -0.0006493478191829142 0.0035261957991494898 -0.00077801784778388432 -0.040291440519926468 -0.026903937266668093 -0.010070255312673275 -0.00062177497328195282 -0.05539285253946917 -0.019421921656439977 -0.049480662494702565 -0.0098759338039763906 -0.02528122202145414 0.0044707207814791289 -0.0022725509231888972 0.01292776358414875 -0.082332920199547646 -0.01188823349228401 0.013591337883809305 0.0025785119074497541 -0.037915490420149189 -0.013666525431604445 0.010877341194639237 -0.030985298677161634 0.030189148639323208 -0.0014912482222306565 -0.031217269539917845 0.003781481502293297 0.0012456414627963724 -0.0026108885081559327 -0.045918292894378959 0.010046755958899034 0.002593691292822328 -0.011497683898435584 0.021187685550002975 0.031590425018565439 0.00051724586691465047 0.011258899749829609 0.0084004448282672967 -0.044147209826517389
leaf_weight=68.300000309944153 82.644444465637207 59.03333306312561 74.355555653572083 83.555555939674377 47.122222065925598 49.133333086967468 41.899999976158142 67.988888621330261 192.33333384990692 174.12222230434418 58.822222352027893 65.41111147403717 65.322221517562866 186.70000100135803 57.344444394111633 86.47777783870697 63.044444561004639 72.722222566604614 72.844444751739502 68.611111044883728 41.188888788223267 47.933333158493042 77.611111760139465 250.02222192287445 54.911111116409302 53.999999761581421 84.722222089767456 72.288889050483704 86.677777409553528 71.088889002799988 2853.5222231149673 94.466666221618652 192.73333370685577 500.2555558681488 63.177777647972107 42.45555567741394 232.23333406448364 107.6666659116745 132.488889336586 199.66666567325592 91.633332967758179 300.03333282470703 90.077778220176697 293.23333430290222 39.466667056083679 42.288889527320862 42.677777767181396 46.666666507720947 56.655555844306946 46.177777886390686 65.333333253860474 62.066666722297668 59.533333659172058 515.03333425521851 73.38888943195343 242.72222280502319 247.01111149787903 479.97777605056763 45.711110830307007 351.9333348274231 627.1666659116745 42.566667079925537 38677.466681241989 41.711111307144165 71.144444346427917 1243.1444455385208 88.288889050483704 39.299999952316284 47.155555605888367 809.54444634914398 255.43333292007446 33.733333230018616 2049.144450545311 1336.9000022411346 104.09999978542328 381.62222063541412 363.96666669845581 44.099999904632568
leaf_count=34 43 28 39 41 21 22 23 36 93 90 31 31 34 88 28 41 32 40 36 33 22 25 42 130 26 28 42 33 43 40 1455 50 93 269 29 23 127 51 69 101 52 152 48 146 25 22 23 23 31 23 32 37 32 262 38 123 130 242 23 182 326 23 19770 24 39 646 44 22 23 404 134 20 1049 678 51 200 182 21
internal_value=0.000711814 -0.0343209 0.00107969 -0.0134589 -0.0313291 0.00148263 -0.00200242 -0.00928176 -0.0168025 -0.0256196 -0.0507855 -0.0590213 -0.0159598 -0.0175048 -0.00525279 -0.0185579 -0.0309869 -0.0454781 -0.0109947 -0.0613168 -0.0451825 -0.0327858 -0.00883561 -0.0151405 0.00204418 -0.0015876 -0.00886354 -0.0237197 -0.02519 -0.073957 0.000658325 -0.00178971 -0.00749877 -0.0043583 -0.00757375 -0.0332289 0.00222821 -0.00066761 -0.00678474 -0.000785335 -0.00859326 -0.00487224 -0.0113105 -0.00438053 -0.00131694 -0.00544945 -0.0143471 -0.0179051 0.0012793 -0.00521283 0.0015171 -0.00493919 -0.00173769 0.000797672 -0.00248468 0.00234031 0.00115603 -0.00249281 -0.00108988 0.0024287 0.000310234 0.000582232 0.00247653 0.0012008 0.00203664 0.00198252 0.000122134 0.00230008 0.000834972 0.00188203 0.000456201 0.00189891 0.002293 0.00230746 0.00152678 0.00229363 0.00227738 0.00147329
internal_weight=56445 586.378 55858.6 1498.2 476.467 54360.4 7539.88 2018.14 1070.43 507.9 210.078 284.656 266.389 360.822 1021.73 233.078 146.6 147.078 301.722 151.256 148.156 89.1222 562.533 327.633 46820.6 2259.62 670.178 140.589 135.811 136.5 5521.73 2217.79 777.344 692.989 201.067 84.3556 44560.9 1653.28 480.633 947.711 159.622 534.367 174.8 425.722 788.656 292.122 100.022 93.7889 1440.44 140.644 1589.44 116.067 359.567 788.089 273.056 42907.7 3008.37 712.211 192.1 39899.3 869.889 234.9 39029.4 496.533 1473.38 1299.8 161.133 3303.94 450.422 1172.64 363.1 457.067 2296.16 1408.04 146.389 415.356 411.122 107.278
internal_count=28864 293 28571 765 235 27806 3874 1034 545 257 107 146 128 178 530 114 73 79 147 76 75 47 288 172 23932 1153 339 67 65 71 2840 1158 408 362 94 46 22779 830 241 489 88 274 90 215 416 147 51 44 750 73 814 65 184 401 139 21949 1548 369 96 20401 449 116 19952 269 749 677 80 1682 227 589 185 244 1179 717 73 220 205 50
cat_boundaries=0 30 31 64 65 66 67 68 100 101 102 103 135
cat_threshold=0 0 0 0 0 0 0 2097152 0 32 100663296 67117070 549981184 0 0 0 134217728 2621952 2182094976 0 0 16777216 512 2048 32 0 8388608 0 64 524288 88 0 32 0 0 4096 256 0 0 67110912 134217728 4718592 131328 512 0 65536 0 8 0 0 4 0 134219776 0 0 0 0 2048 268959744 8411140 268702464 0 0 131074 448 448 448 448 0 8 0 1024 0 34816 98304 536870912 0 131080 258 0 0 0 0 0 0 0 0 0 0 0 0 0 0 0 0 107085824 134217728 72 16777216 151011328 448 64 260 0 0 0 0 0 0 0 0 0 131072 0 0 0 0 0 0 0 0 0 0 0 0 0 0 0 0 0 0 134217728 0 16777216 16384
is_linear=0
shrinkage=0.10158


Tree=3
num_leaves=86
num_cat=14
split_feature=32 48 6 5 5 32 28 32 36 25 5 28 32 48 28 32 44 28 48 47 43 48 25 28 51 49 39 31 28 51 6 5 28 10 51 5 48 32 28 49 39 28 49 51 42 32 0 30 39 51 39 32 39 6 32 28 47 51 29 51 49 31 30 51 50 6 37 6 43 51 28 48 45 44 48 6 28 5 50 32 39 50 29 6 28
split_gain=33.218 21.0294 11.1529 10.4344 10.2719 12.642 10.0866 12.157 6.78064 5.45043 4.87927 5.28777 4.73621 4.70244 8.00841 9.48557 4.94772 5.99014 5.90858 4.33611 3.82203 3.67901 3.33088 2.95203 2.88366 2.55613 2.26668 2.04503 1.85375 1.79292 1.70709 3.19461 4.62795 3.29476 1.68992 1.6375 1.66415 1.79305 1.42252 1.35213 1.18046 1.08543 1.65875 0.924094 1.24285 0.913654 0.880015 0.803879 0.790157 0.773641 0.697296 0.681122 0.955188 0.548978 0.811453 0.998043 1.07453 0.584598 0.742982 0.545063 0.544634 0.36874 0.305705 0.305143 0.420802 0.297788 0.873044 0.266674 0.236297 0.219877 0.205582 0.586079 1.38251 0.187048 0.15989 0.152107 0.397198 0.524932 0.124094 0.346897 0.0994234 0.0704978 0.557625 0.056935 0.0327882
threshold=102.50000000000001 240225.00000000003 0 1 2 135.50000000000003 1918.5000000000002 81.500000000000014 5.5000000000000009 1.0000000180025095e-35 3 1899.5000000000002 68.500000000000014 286500.00000000006 1950.5000000000002 143.50000000000003 62.725600309995684 1870.5000000000002 229500.00000000003 55.339424555770641 74.259558898993802 338375.00000000006 1.0000000180025095e-35 1947.5000000000002 1647.4062949002544 126.50000000000001 50.071428571428577 5.6402131500000001 1929.5000000000002 2069.5222751471006 4 5 1935.5000000000002 1.0000000180025095e-35 2449.2123865862463 6 273875.00000000006 178.50000000000003 1972.5000000000002 162.00000000000003 55.366666666666674 1951.5000000000002 46.500000000000007 1295.3237791932063 88.331303294649089 145.50000000000003 7 50.751455000000007 46.535714285714292 1753.3656716417913 31.071428571428573 125.50000000000001 52.366666666666674 8 172.50000000000003 1983.5000000000002 57.241695029665408 1226.5175531290363 3.5000000000000004 1786.4014923173788 48.500000000000007 5.466430250000001 51.050353650000005 1348.2817303469481 3365.5000000000005 9 1.5000000000000002 10 34.097936436535285 1917.1008153637565 1923.5000000000002 314800.00000000006 64.764330604880982 84.502769701443682 189750.00000000003 11 1952.5000000000002 12 5858.5000000000009 138.50000000000003 22.633333333333336 6086.5000000000009 2.5000000000000004 13 1841.5000000000002
decision_type=2 10 9 9 9 2 2 2 2 2 9 2 2 8 2 2 2 2 10 2 2 10 2 2 2 2 8 2 2 2 9 9 2 2 2 9 10 2 2 2 10 2 2 2 2 2 9 2 10 2 10 2 10 9 2 2 2 2 2 2 2 2 2 2 2 9 2 9 2 2 2 10 2 2 8 9 2 9 2 2 10 2 2 9 2
left_child=1 3 4 6 28 9 8 19 25 -6 11 21 20 14 15 16 24 -18 -19 38 34 -3 23 -7 39 -1 49 59 40 41 31 32 33 -15 -13 36 46 -38 -8 -4 61 42 -14 44 -37 48 -17 -24 -34 74 -9 52 -33 54 55 56 -16 58 -55 -12 -26 -2 -47 64 -32 66 -53 -45 -31 -43 71 72 -61 -52 -5 76 77 -65 79 -77 -72 82 -59 -83 -80
right_child=2 10 13 26 5 22 7 50 -10 -11 27 12 29 30 53 35 17 18 -20 -21 -22 -23 47 -25 60 -27 -28 -29 -30 68 63 51 45 -35 -36 43 37 -39 -40 -41 -42 69 -44 67 -46 62 -48 -49 -50 -51 73 65 -54 57 -56 -57 -58 81 -60 70 -62 -63 -64 75 -66 -67 -68 -69 -70 -71 80 -73 -74 -75 -76 78 -78 -79 84 -81 -82 83 -84 -85 -86
leaf_value=-0.040156359652200484 0.0076129441405160007 -0.086081633648527653 -0.019228481099734254 -0.039397313415440255 -0.066926371828894771 -0.054771013283438579 -0.14433694561269542 -0.030673118553511194 -0.059443495013374717 -0.072852954716003865 -0.045844182588949491 -0.070225906623105558 -0.030245438124143698 -0.055118110482435055 -0.050117696162837844 0.0014626153002676755 -0.052741087374644259 -0.04431022655780046 -0.02368364886572891 -0.039749512846864253 -0.15203345926701278 -0.043295689999177066 0.0070599444960351039 -0.012523545189361628 -0.027863687801288915 -0.086456233978166597 -0.060232448537062826 -0.049318231702573795 0.011887154541491869 -0.019692499175019678 0.00066297890297909595 0.013424668790572924 -0.0065106926879978785 -0.045613342432509321 -0.023221738311095062 0.0081119149145369579 -0.046217996256819271 -0.012553041923665006 -0.14554346586842468 -0.023436541339741927 -0.1047024376703477 0.0054647405679151056 -0.038828703398156146 -0.036289152198911469 -0.023109554999634709 0.00677080025225119 -0.031039664470823035 -0.034967764703217163 -0.043600238877101065 -0.037637400467981225 0.00028079064077925182 -0.014780587572964165 -0.040161823850685646 -0.01105466075583573 0.0049223369181761907 0.021031373802271793 -0.046560356185290815 -0.05934822305997136 0.01178288775646193 -0.031956683636945524 0.0044070676174279332 -0.019035921329906277 -0.0001958118518742736 0.028460523793840578 -0.025741899506897967 0.029719800067299306 0.038250314594650926 0.0066166111752683212 0.0014853637335294956 -0.050855516715404676 -0.0445789216232527 0.0089343880845869517 0.0020412044220511202 -0.022247608942586167 0.012522846302914314 -0.040410836059708993 0.027524160650608018 -0.0075936543412423001 -0.051649863422511953 0.015064812087543313 0.0077137296779334211 -0.0089721473446942764 0.0076023221502762714 0.017059437898579988 0.028794549420282728
leaf_weight=60.644444823265076 61.311110973358154 41.766666531562805 43.322222709655762 71.188888788223267 60.911110877990723 65.422222256660461 43.49999988079071 43.177777647972107 55.655556201934814 72.155555486679077 49.133333444595337 45.988888382911682 48.944444179534912 73.977777600288391 52.788889050483704 412.66666746139526 53.400000691413879 141.35555601119995 396.81111133098602 60.399999856948853 55.377778172492981 39.744444608688354 150.12222218513489 78.333333015441895 45.099999785423279 74.5 47.866666436195374 46.433333277702332 539.51111233234406 82.288888335227966 56.277777791023254 64.366667032241821 76.622221946716309 71.144443988800049 66.766666650772095 45.155555248260498 50.799999952316284 91.799999952316284 47.033333301544189 109.76666676998138 72.211111068725586 44.611111402511597 68.944444537162781 200.66666674613953 43.50000011920929 268.53333401679993 230.97777831554413 47.211111068725586 51.466666698455811 83.022221922874451 103.8666660785675 101.49999976158142 55.311110854148865 44.244444370269775 262.71111249923706 71.733333349227905 55.399999618530273 45.155555486679077 52.966666460037231 47.94444465637207 333.98888838291168 42.91111159324646 73.5 221.94444489479065 42.54444408416748 1835.577783703804 314.79999971389771 1766.2666646242142 320.94444453716278 44.055555701255798 36.566666483879089 204.99999988079071 71.655555486679077 37.488889098167419 103.62222230434418 120.35555505752563 1310.2111123800278 237.86666774749756 62.944445133209229 768.97777915000916 741.04444563388824 238.70000088214874 293.46666550636292 5566.0000007152557 35961.044461369514
leaf_count=27 28 21 24 37 29 32 24 21 29 35 25 21 25 37 26 204 27 69 206 31 27 23 74 39 23 35 26 22 278 41 28 36 37 36 31 23 25 47 30 54 40 25 37 104 22 127 114 23 25 41 59 48 29 22 136 41 29 22 27 23 163 23 36 114 24 945 160 894 169 23 18 105 35 21 51 55 682 130 34 392 381 128 152 2864 18403
internal_value=0.000940579 -0.00966891 0.00151241 -0.0232947 -0.00817162 -0.0196328 -0.0317857 -0.0217628 -0.0510325 -0.0465799 -0.00415675 -0.0099381 -0.00746956 0.00173354 -0.00017162 -0.00378787 -0.0116875 -0.0180792 -0.0148475 -0.0431253 -0.0225541 -0.0346399 -0.00967496 -0.0214249 -0.00457834 -0.0633143 -0.00738562 7.46612e-05 -0.000411952 -0.00330448 0.00221966 -0.000123753 -0.00658432 -0.0225355 -0.0117838 -0.000663526 -0.00457294 -0.0145524 -0.0571799 -0.0163355 -0.00945071 -0.0109957 -0.0173741 0.000850132 -0.00927912 -0.00179298 -0.0024292 -0.00110229 -0.00910387 -0.00384841 -0.004263 0.00157324 -0.00588146 0.00197418 -0.00147053 -0.00675574 -0.012908 0.00221737 -0.00558741 0.000919796 0.000175148 -0.00252305 0.000948126 0.00239955 -0.00323232 0.00197693 -0.000490199 0.00131192 0.000638389 -0.00249477 0.00138716 -0.000759499 -0.00640514 -0.000804218 -1.02029e-05 0.00241458 0.00146231 -0.00109758 0.00245917 0.0012738 0.00228335 0.00234466 0.000918779 0.00242779 0.0024891
internal_weight=56497 2889.18 53607.8 831.967 1190.1 474.156 526.267 335.467 190.8 133.067 2057.21 859.433 777.922 52417.7 10648.7 3965.58 1123.74 591.567 538.167 150.933 168.133 81.5111 341.089 143.756 532.178 135.144 305.7 1197.78 715.944 609.789 41769 2986.8 615.244 145.122 112.756 2841.83 786.244 142.6 90.5333 153.089 176.433 206.556 117.889 2055.59 88.6556 470.122 643.644 197.333 128.089 257.833 184.533 2371.56 119.678 6683.17 442.633 179.922 108.189 6240.53 97.2111 1151.34 379.089 104.222 342.033 38782.2 98.8222 2251.88 416.3 1966.93 403.233 88.6667 1102.21 324.6 119.6 141.356 174.811 38683.3 1770.02 459.811 36913.3 889.333 777.611 6143.32 338.622 5804.7 36024
internal_count=28909 1484 27425 432 601 232 277 186 91 64 1052 443 399 26824 5446 1999 566 302 275 85 79 44 168 71 264 62 155 609 369 320 21378 1516 298 73 52 1433 390 72 54 78 91 110 62 1043 45 225 318 97 62 129 101 1218 65 3447 232 96 55 3215 49 587 186 51 163 19862 52 1153 208 998 210 48 562 163 58 80 88 19810 926 244 18884 447 399 3166 174 2992 18437
cat_boundaries=0 30 31 32 33 66 67 68 69 102 134 166 197 198 229
cat_threshold=0 32 0 0 0 0 0 0 0 1081344 33554432 536870912 537395200 128 2147549184 134217728 0 512 2181038467 134217740 268435456 16779264 8388608 2048 0 0 0 0 64 262144 960 59 896 0 8 33554432 0 32768 0 32896 0 16384 80 0 0 0 0 0 16777216 8 0 0 0 0 0 0 0 0 0 0 268828673 295704576 264 67117056 17825921 128 128 896 12 0 0 0 0 0 32768 0 0 0 134217728 6291456 0 0 0 0 0 0 0 0 0 0 0 0 0 0 0 0 0 1048576 0 0 0 2 0 8 0 0 0 0 0 0 0 0 0 0 0 0 0 0 8 0 0 0 0 0 0 0 0 0 0 131072 0 256 0 1048704 0 0 0 0 0 0 0 0 4194304 0 0 0 512 0 0 0 0 0 0 0 0 268435456 0 0 0 0 0 100663296 0 2 0 8192 0 0 0 1024 1048576 2048 8192 0 98 0 1073741824 0 64 0 134217728 0 0 0 0 0 0 0 0 0 0 0 536870912 0 0 0 151257088 56 0 0 0 0 0 0 0 0 0 0 0 0 0 0 0 0 0 0 0 0 0 0 0 0 0 0 0 67108864 0 0 1024
is_linear=0
shrinkage=0.10158


Tree=4
num_leaves=86
num_cat=11
split_feature=32 48 25 6 27 28 51 32 28 10 32 28 42 28 6 7 48 32 5 32 40 25 39 50 51 44 28 51 28 6 25 48 2 51 30 32 36 33 51 27 6 5 6 5 30 48 33 28 28 50 39 41 51 39 51 42 48 25 47 48 46 32 39 39 41 28 28 45 47 46 50 41 51 50 27 42 28 46 51 6 32 38 50 26 50
split_gain=22.1832 13.3414 9.74172 7.97781 10.8714 6.45348 6.523 4.12519 4.1026 4.02353 3.26746 3.55725 3.05529 3.01354 5.3694 3.78192 4.76294 3.02402 2.98118 4.02115 2.89869 2.88606 3.85537 3.37722 2.40682 2.27777 2.07095 1.97104 2.40951 1.51353 3.85658 1.39253 1.38679 2.30847 1.34276 1.23922 1.21108 1.02311 0.941783 0.879968 0.85061 2.26265 0.760443 1.36725 1.3706 0.74771 0.870165 1.03496 0.718776 1.51821 0.674337 0.542525 0.539211 0.523463 0.665934 0.499882 0.459542 0.708006 1.71763 0.371621 0.315728 0.277661 0.259035 0.198561 0.156829 0.152846 0.338354 0.129602 0.124062 0.104216 0.100561 0.231386 0.0775831 0.203128 0.0670896 0.0423803 0.0336638 0.0704468 0.0334004 0.0311464 0.226333 0.0346299 0.0231313 0.0202032 0.020119
threshold=102.50000000000001 269500.00000000006 1.0000000180025095e-35 0 2.5000000000000004 1918.5000000000002 1502.8475791611145 49.500000000000007 1944.5000000000002 1.0000000180025095e-35 135.50000000000003 1951.5000000000002 115.5777019424779 1950.5000000000002 1 2 177750.00000000003 128.50000000000003 3 150.50000000000003 1915.0000000000002 1.0000000180025095e-35 54.045454545454554 19102.000000000004 2112.0606214977083 67.309771177478765 1898.5000000000002 1647.4062949002544 1889.5000000000002 4 1.0000000180025095e-35 349500.00000000006 5 1936.8699341438705 50.549062800000009 239.50000000000003 32.500000000000007 1.5000000000000002 1690.1957295373668 3.5000000000000004 6 7 8 9 51.050353650000005 231000.00000000003 1.5000000000000002 1976.5000000000002 1951.5000000000002 76796.500000000015 22.633333333333336 51.119565829504516 1226.5175531290363 39.083333333333336 2007.3989237929029 105.90962921058073 324625.00000000006 1.0000000180025095e-35 90.879947710538815 299750.00000000006 95.350780273923434 122.50000000000001 49.916666666666679 38.062500000000007 28.004748630127096 1899.5000000000002 1898.5000000000002 78.024520105975924 55.07838395801295 94.176191451894098 12980.000000000002 100.87865391221213 1226.5175531290363 20345.000000000004 4.5000000000000009 96.981063732790759 1903.5000000000002 70.740831909689021 1786.4014923173788 10 136.50000000000003 70.500000000000014 4102.0000000000009 1.0000000180025095e-35 65748.500000000015
decision_type=2 10 2 9 2 2 2 2 2 2 2 2 2 2 9 1 8 2 9 2 2 2 8 2 2 2 2 2 2 9 2 10 9 2 2 2 2 2 2 2 9 9 9 9 2 10 2 2 2 2 8 2 2 8 2 2 10 2 2 10 2 2 10 10 2 2 2 2 2 2 2 2 2 2 2 2 2 2 2 9 2 2 2 2 2
left_child=1 2 5 4 8 6 -1 -4 9 -2 11 25 38 14 18 16 -16 -18 84 21 -11 22 -20 -23 26 -6 -3 -8 -29 30 -12 48 33 35 -10 -17 45 39 -7 -21 41 -34 43 44 51 46 47 -9 49 59 -26 -15 -42 54 -45 -19 57 58 -52 -28 -35 -13 -50 -31 -55 66 -58 -59 -48 -53 71 -67 73 -44 -32 -47 77 -65 -66 80 -74 -82 -81 -72 -5
right_child=3 24 7 13 10 12 27 36 34 20 29 61 -14 42 15 32 17 55 19 37 -22 23 -24 -25 50 -27 31 28 -30 63 74 -33 40 60 -36 -37 -38 -39 -40 -41 52 -43 72 53 -46 75 68 -49 62 -51 56 69 -54 64 -56 -57 65 67 -60 -61 -62 -63 -64 76 78 70 -68 -69 -70 -71 83 -73 79 -75 -76 -77 -78 -79 -80 82 81 -83 -84 -85 -86
leaf_value=-0.054177348864649859 -0.060127989709941668 -0.038721709503493421 -0.059879554003613812 0.0049099839238211937 -0.013966593695351149 -0.11230711774760942 -0.038497928034332253 -0.049956849317619637 -0.037216198666200996 -0.04042751315993607 -0.13270907437785165 0.018603005716297992 -0.18718363451946018 -0.013523224137359563 -0.048879843605341346 -0.048905955328324015 -0.038493403799384956 0.0018981043367704209 -0.037624053077026327 -0.032602899430693562 -0.022849517788445243 -0.049519211774878162 -0.042325826586280819 -0.043746712003313287 -0.13658989759291046 -0.043507226037253433 -0.010886223984959214 -0.032271738729798015 -0.077674008091906471 -0.047114639164159942 -0.0028638710271412572 -0.041187329652598151 -0.027553236672297591 0.0037190485809348028 -0.0009439619941475271 0.0043911373963153805 -0.047739487652521721 0.0074021710759742902 -0.27530288697681182 -0.002728534011493955 -0.048745168823164847 0.0084625965210279458 0.0014335041901735344 -0.045026739636647418 -0.041830754321448199 -0.044308484791410724 0.00088092105390853454 0.005781358517793227 0.01363363808056493 -0.026427518916248723 0.002077320398539102 0.00046514891822348561 0.0099341087687666932 -0.0022382534874798169 0.0021723083921182584 -0.025923068202172397 -0.07021799262117652 0.001571048262039344 -0.063092357697214607 -0.034582666994537915 -0.08573869374295133 -0.054461249183985427 -0.045689612363499263 0.0018460366100606709 -0.0044249877437582789 -0.010369481432485773 -0.0044747592501963489 -0.017639460464466881 -0.0088495862714064004 -0.031800948200975815 -0.042952167579863261 0.0017316118080842251 -0.010124863539333942 -0.0099751325159668988 -0.0042268885786149154 0.00034241287899027298 0.010779979698165154 -0.02166084651608768 0.034172319547572702 0.0022772088130956856 0.024541938201525247 -0.0067975349149457668 0.02770575583045639 0.010389684077035992 -0.061875708955204736
leaf_weight=38.03333306312561 45.422222256660461 54.522222518920898 45.311111330986023 276.7888879776001 60.544444561004639 73.133333325386047 43.811111450195312 236.94444370269775 40.711110949516296 44.433333516120911 67.177777528762817 82.45555579662323 58.055555701255798 45.877777695655823 68.377778172492981 142.07777786254883 71.922222971916199 410.86666750907898 74.177777409553528 201.17777800559998 46.111110925674438 54.188888788223267 41.033332705497742 132.73333287239075 49.544444441795349 57.700000047683716 98.522222399711609 53.055555939674377 56.988888621330261 91.822222590446472 112.54444491863251 47.677778005599976 288.13333463668823 350.26666593551636 67.066666483879089 42.611111164093018 63.755556225776672 169.54444444179535 74.700000166893005 118.0666663646698 97.155555486679077 692.81111085414886 106.99999988079071 43.700000643730164 75.055555462837219 36.711110949516296 77.255555272102356 53.188888311386108 168.68888914585114 45.57777738571167 49.944444417953491 110.3666660785675 11863.3111140728 43.866666436195374 47.111111640930176 83.333333611488342 102.28888857364655 115.30000042915344 43.933333277702332 72.666666269302368 60.111111044883728 52.755555152893066 43.544444561004639 83.999999403953552 135.03333389759064 40.900000095367432 41.722222328186035 41.255555748939514 35.311111330986023 46.911111354827881 52.333333730697632 75.066666483879089 47.066666841506958 42.444444179534912 45.244444847106934 97.411111116409302 827.00000214576721 46.344444632530212 1069.2666672468185 376.77777767181396 449.75555670261383 44.366667151451111 33865.977798461914 702.02222192287445 47.211110830307007
leaf_count=18 22 28 24 145 28 38 20 124 19 21 34 40 32 21 37 70 33 214 38 98 23 27 21 73 24 32 51 25 26 43 56 27 146 179 35 23 33 87 38 58 49 359 54 21 41 21 40 32 88 22 25 54 6017 20 29 42 55 58 21 39 34 27 22 37 67 24 20 22 20 22 25 37 24 22 23 51 412 26 552 204 234 23 17384 354 25
internal_value=0.00118744 -0.00748257 -0.0166606 0.00165473 -0.00503183 -0.0291631 -0.0425611 -0.00895425 -0.0249737 -0.0366972 -0.00188003 -0.0124088 -0.0166478 0.00188385 0.000686542 0.00122158 -0.00638359 -0.00342027 -0.00606944 -0.00941738 -0.0242337 -0.0187453 -0.031382 -0.010932 -0.00229103 -0.0252622 -0.00805991 -0.0331738 -0.0404257 0.000215851 -0.00715976 -0.00590851 0.0015826 -0.00317945 -0.0101443 -0.0126576 -0.00671751 -0.00383886 -0.0088699 -0.00722426 0.00180391 -0.00106791 0.00238509 0.000221646 -0.00612831 -0.005141 -0.00732805 -0.0102676 -0.00407259 -0.00818409 4.13059e-05 -0.0020082 0.00204016 0.00157743 -0.00584889 -0.000584336 0.000497551 -0.00339753 -0.0103628 -0.00378506 0.00101235 -0.00114767 0.000129814 0.00184908 0.00213127 0.00145979 -0.00160361 0.000785996 0.000252064 0.000829876 0.00196704 -0.000816029 0.00248446 0.000174669 0.00120692 0.00142588 0.0022996 0.000779755 0.00234879 0.0024951 0.00159989 0.00227116 0.00250803 0.00239512 0.0021409
internal_weight=56497 2889.18 1043.67 53607.8 1771.33 397.778 191.889 645.889 243.744 135.967 1527.59 253.456 205.889 51836.5 15285.9 14171 634.5 566.122 1114.92 790.922 90.5444 302.133 115.211 186.922 1845.51 118.244 531.2 153.856 110.044 1274.13 224.967 476.678 13536.5 595.067 107.778 184.689 600.578 488.789 147.833 319.244 12941.4 980.944 36550.6 1617.19 278.211 536.822 402.7 290.133 429 216.767 1314.31 203.156 11960.5 1338.98 90.8111 494.2 1264.77 250.433 93.8778 171.189 410.378 135.211 212.233 1049.17 1248.17 1014.33 144.011 156.556 112.567 157.278 870.322 115.967 34933.4 149.444 157.789 134.122 957.344 130.344 1204.3 34783.9 541.189 494.122 34242.8 754.356 324
internal_count=28909 1484 542 27425 878 197 89 345 120 66 758 127 108 26547 7775 7203 326 289 572 402 44 159 59 100 942 60 277 71 51 631 113 249 6877 306 54 93 321 243 76 156 6571 505 18772 827 138 288 216 156 222 112 665 97 6066 689 50 256 641 126 46 90 213 67 110 518 639 515 75 80 60 76 440 61 17945 76 79 72 475 63 619 17869 281 257 17588 379 170
cat_boundaries=0 32 64 65 66 85 86 119 120 153 154 186
cat_threshold=0 32 0 0 0 0 0 0 0 1048576 100663296 536871172 536870912 128 2147549184 16777216 24 512 301990274 134217740 268435456 2048 8388608 524288 0 0 0 0 268435456 262152 8192 8388608 0 0 33554432 16 33280 0 1114112 536870912 67108864 0 256 0 8390656 0 0 130 0 0 0 0 0 0 0 2048 0 0 536870912 335544352 687865860 514 8388608 140289 80 24 0 32 0 0 0 0 0 0 0 1048576 0 0 0 0 2147549184 0 0 0 33554560 4 0 0 0 1024 1048576 2048 8192 0 32 0 2 0 0 0 0 0 0 0 0 0 0 0 0 0 0 0 0 6291456 2048 4096 851968 256 131328 128 0 0 0 0 0 33024 0 0 0 64 2097152 0 0 0 0 0 0 0 0 0 0 0 0 0 0 0 536870912 67371009 1048576 1280 1024 128 6 128 0 0 0 0 0 0 0 0 0 0 0 0 0 0 0 0 0 0 0 0 0 262144 0 0 0 0 0 2097152 0 2048 150994944 1
is_linear=0
shrinkage=0.10158


Tree=5
num_leaves=73
num_cat=13
split_feature=6 27 28 32 5 28 32 6 27 30 42 32 28 37 32 39 28 28 48 5 27 41 42 2 18 28 10 30 28 43 43 6 6 32 25 6 28 5 32 31 28 39 31 32 51 45 32 27 43 42 30 6 28 6 38 28 42 6 32 32 50 27 6 33 51 51 28 44 48 46 51 34
split_gain=12.787 14.4692 7.75904 6.98864 4.79429 5.86303 4.29207 3.45138 5.31905 3.38286 3.27771 3.22141 3.00094 3.98446 2.9012 2.67948 2.55993 2.36102 1.84151 2.63898 1.8842 3.31222 4.50276 1.40607 1.21342 1.11695 1.51503 2.35632 1.03947 0.984553 0.966389 0.880567 0.708383 1.14733 1.79477 0.623923 1.01392 1.17328 1.33807 0.456169 0.370198 0.405468 0.433093 0.315061 0.509241 0.288223 0.380721 0.242039 0.91657 0.196103 0.144159 0.123585 0.256582 0.109061 0.454191 0.0840666 0.158178 0.0814437 0.336779 0.0653081 0.064421 0.0471722 0.363972 0.324357 0.0434371 0.0381479 0.0384524 0.0365399 0.0284711 0.0249775 0.0229832 0.006373
threshold=0 2.5000000000000004 1898.5000000000002 100.50000000000001 1 1899.5000000000002 49.500000000000007 2 2.5000000000000004 50.635706850000012 89.193460464800111 167.50000000000003 1899.5000000000002 1.5000000000000002 111.50000000000001 59.045454545454554 1935.5000000000002 1969.5000000000002 287250.00000000006 3 2.5000000000000004 72.960478247786327 90.578256902801542 4 1.0000000180025095e-35 1965.5000000000002 1.0000000180025095e-35 50.658724600000006 1947.5000000000002 44.66540853652986 44.284495977377915 5 6 178.50000000000003 1.0000000180025095e-35 7 1952.5000000000002 8 189.50000000000003 5.6614721500000007 1945.5000000000002 130.12500000000003 3.0274653500000004 126.50000000000001 1592.6216184836878 110.94132636484176 74.500000000000014 1.5000000000000002 87.598110865182704 71.253477500300633 50.751455000000007 9 1980.5000000000002 10 99.500000000000014 1878.5000000000002 89.670458523929966 11 167.50000000000003 135.50000000000003 5046.5000000000009 2.5000000000000004 12 1.0000000180025095e-35 1939.2431021625655 1459.3586907850042 1990.5000000000002 7.2817412801463544 189750.00000000003 106.71293383695222 2202.1948337641479 12.500000000000002
decision_type=9 2 2 2 9 2 2 9 2 2 2 2 2 2 2 8 2 2 10 9 2 2 2 9 2 2 2 2 2 2 2 9 9 2 2 9 2 9 2 2 2 10 2 2 2 2 2 2 2 2 2 9 2 9 2 2 2 9 2 2 2 2 9 2 2 2 2 2 8 2 2 2
left_child=1 2 -1 4 5 9 -7 8 11 -2 -4 15 13 -3 -10 -5 -17 28 19 20 21 22 -9 24 -22 26 27 -8 -12 -28 -11 -25 33 34 -16 36 37 38 -20 43 41 42 -21 44 -14 -27 -47 48 -6 -39 -13 52 -38 54 -34 56 -49 58 -42 -53 -59 62 63 -37 -64 66 -63 -67 -57 -23 -45 -55
right_child=3 12 10 7 47 6 25 18 14 30 17 50 39 -15 32 16 -18 -19 35 40 23 69 -24 31 -26 45 29 -29 -30 -31 -32 -33 53 -35 -36 61 51 49 -40 -41 57 -43 -44 70 -46 46 -48 55 -50 -51 -52 59 -54 71 -56 68 -58 60 -60 -61 -62 65 64 -65 -66 67 -68 -69 -70 -71 -72 -73
leaf_value=-0.048674012740059551 -0.046742404953285861 -0.11898145483156965 -0.054020187375493592 -0.038026368319370209 0.0031210873919986144 -0.12271509320639259 -0.069783880877637788 -0.041011213808330026 -0.018977109380364818 -0.069447332456584063 -0.051842581755400234 -0.021111902655767258 -0.048929074459575797 -0.014293837458360534 -0.03572678242516291 -0.044489049304160769 -0.032301762856737859 -0.049039417572371582 -0.023781637155523908 -0.034927440501971593 -0.045941434911456185 0.0020870880966135756 -0.03453335900675357 -0.029961775570667704 -0.01799653922395315 0.0087286491613410757 -0.019493184904137643 -0.054476800715951054 0.010293680311296552 -0.01003809229576063 -0.015657958597829678 0.0020352116641800225 0.00035019605248127187 0.012480739935030714 -0.00043325660667829026 -0.016735560117694902 -0.002010891655796012 0.011169966064822798 -0.0069436708540375411 -0.011272171859044455 -0.0074995267826771603 -0.050995753854262388 0.0033398716808215349 0.0094991119000676031 0.0030380759142474493 -0.048399246336399075 -0.023682050159507258 0.011441398754053245 -0.03700351992579097 -0.015862527267274669 0.015524358791571288 -0.041043859819500685 0.035946417608307156 0.0088141343694202023 -0.00904198022876594 -0.0083786667149711187 -0.015756729810460435 -0.0014461528125248885 0.04323452817977378 0.025853988752035695 0.017809598686857105 -0.0022163161023725842 -0.0003428452988951842 -0.00018593482387850406 0.0091366431017693411 -0.0036393878319527649 0.054352648294927731 0.027057124958788769 0.01056755977978026 -0.01328807384987341 -0.030890281023870047 -0.0080164794770310674
leaf_weight=53.733333587646484 91.211112141609192 66.633333325386047 47.211111426353455 73.699999928474426 126.76666712760925 78.322222590446472 50.955555438995361 256.19999933242798 72.033333659172058 61.299999952316284 60.322221636772156 39.188888669013977 47.644444108009338 81.311110734939575 69.644444584846497 56.155555486679077 70.477777481079102 39.644444704055786 135.82222270965576 90.644444465637207 110.25555515289307 187.99999928474426 42.844444394111633 260.39999973773956 89.322222590446472 284.2222226858139 104.51111090183258 176.99999964237213 57.355555415153503 335.13333427906036 44.144444584846497 2221.155558347702 224.07777798175812 219.66666626930237 162.84444499015808 146.92222189903259 101.5777782201767 296.6111114025116 110.70000088214874 55.699999690055847 54.733333110809326 42.0999995470047 1767.3999992609024 414.50000059604645 58.344444513320923 76.277777671813965 97.488888740539551 59.233333110809326 49.355555534362793 59.400000095367432 68.400000214576721 161.66666674613953 147.16666579246521 917.81111037731171 40.766666531562805 47.666666626930237 38.288888573646545 365.04444313049316 183.43333387374878 1395.3111151456833 4782.4666676521301 45.111111402511597 312.81111037731171 111.38888871669769 3218.5111099481583 56.622221946716309 44.233333230018616 33971.988914847374 788.53333222866058 42.644444584846497 39.666666984558105 137.25555551052094
leaf_count=26 40 33 23 37 64 38 28 138 33 32 30 21 26 39 37 27 39 24 69 48 53 99 22 134 48 145 55 95 30 171 26 1148 113 112 79 71 50 154 56 28 28 22 895 207 27 48 51 32 26 34 32 84 73 448 21 24 19 193 92 726 2450 24 159 55 1642 28 21 17398 393 21 21 74
internal_value=0.00142461 -0.00977962 -0.0306507 0.00163254 -0.00360389 -0.00752491 -0.00492026 0.00188106 -0.00209835 -0.0238319 -0.0215878 -0.0144625 -0.00284439 -0.0158253 -4.38679e-05 -0.0220706 -0.0310234 -0.0145098 0.00204962 0.000851525 -0.00157247 -0.00711245 -0.0141635 -0.000483385 -0.0084682 -0.00331782 -0.0059676 -0.0126845 -0.00725961 -0.00248068 -0.0114075 0.000192693 0.000769354 -0.00266712 -0.00769718 0.00236205 0.000765131 -0.00283926 -0.00804682 0.000277715 0.00191932 0.000702758 0.000926572 0.00115064 -0.00383132 0.000545346 -0.00271162 0.00139976 -0.00203972 0.000967567 -0.000280984 0.00197231 -0.000166649 0.00195228 7.30749e-05 0.00206392 -0.000756373 0.00235204 0.00043074 0.00230038 0.00243533 0.00246264 0.0021227 -0.00153728 0.00238811 0.00250111 0.00040253 0.00250661 0.00239306 0.00203333 0.00231464 0.00241869
internal_weight=56497 1022.07 258.267 55474.9 2510.41 1400.57 1203.91 52964.5 2152.02 196.656 204.533 307.922 763.8 147.944 1844.1 200.333 126.633 157.322 50812.5 10496.6 3210.82 529.689 299.044 2681.13 199.578 1125.59 667.6 227.956 117.678 439.644 105.444 2481.56 1772.07 452.156 232.489 40315.8 2408.26 602.533 246.522 615.856 7285.82 1900.14 1858.04 560.156 105.989 457.989 173.767 1109.84 176.122 356.011 107.589 1805.72 248.744 1319.91 264.844 933.722 97.5222 5385.68 238.167 1556.98 5147.51 37907.6 3789.63 258.311 3531.32 34118 89.3444 34028.6 836.2 230.644 454.167 1055.07
internal_count=28909 514 133 28395 1287 729 631 27108 1073 98 107 156 381 72 917 103 66 84 26035 5391 1663 280 160 1383 101 593 349 123 60 226 58 1282 884 228 116 20644 1246 313 125 309 3728 965 943 281 53 244 99 558 90 188 53 933 123 656 134 468 51 2763 120 810 2643 19398 1927 126 1801 17471 45 17426 417 120 228 522
cat_boundaries=0 29 30 62 63 64 94 124 156 157 189 219 252 284
cat_threshold=0 32 0 0 0 0 0 0 0 0 1149239296 603980040 536872960 0 2147483648 0 0 2097156 33554818 134217756 268435456 2048 9437200 1048576 32 0 0 0 64 960 0 0 0 0 0 0 8 0 16384 32768 33554432 4 29368320 0 65536 16777346 24 512 0 0 134217729 134217728 524288 2048 0 0 0 268435456 287309828 2147488072 0 8388608 448 4 0 0 0 0 0 0 0 0 0 135266304 0 0 0 0 0 0 0 0 0 0 0 0 0 0 0 0 0 73400320 0 262146 0 0 0 0 0 0 0 0 16384 32768 33554432 0 16777216 0 65536 0 0 0 0 0 0 134217728 0 0 0 0 0 0 16777216 2147483968 4194304 8 33554432 1024 1081344 0 0 0 96 8 0 0 0 0 0 0 0 0 0 0 0 0 0 0 0 0 0 131072 22528 0 2298740736 129 128 4194304 0 0 0 0 0 0 0 0 0 0 0 0 0 0 0 0 0 0 0 0 0 0 0 0 0 0 0 4096 0 0 128 0 0 0 0 0 0 0 0 0 0 0 0 8388608 0 0 0 0 0 0 0 0 0 0 0 0 0 0 0 4 4096 0 0 0 0 0 0 0 0 0 0 4194304 0 0 0 0 0 0 0 0 0 0 0 0 0 0 0 0 2097152 0 0 0 0 2 0 0 0 0 512 2048 256 0 0 0 0 0 0 0 0 0 0 0 0 0 0 0 0 0 0 0 0 0 0 0 32768 258
is_linear=0
shrinkage=0.10158


Tree=6
num_leaves=72
num_cat=8
split_feature=6 32 28 32 48 32 6 28 0 50 48 30 45 30 44 33 31 50 48 28 36 32 6 27 32 48 43 50 28 25 6 10 27 18 35 10 28 32 47 28 42 49 34 46 48 31 31 31 2 48 46 31 48 28 48 6 25 30 44 49 30 50 6 10 33 32 50 49 38 49 48
split_gain=11.7617 12.8376 6.50427 5.96137 3.97809 3.30998 7.65388 4.34263 4.06565 4.12617 2.76926 2.69376 3.28732 2.56052 2.4437 2.09583 4.16044 1.63851 1.51464 1.93047 2.47445 1.39651 1.38889 1.87081 2.03061 1.38709 1.40165 1.2495 1.94748 1.9779 1.29478 1.34879 1.09404 1.07252 1.30233 0.922234 1.2011 1.23353 0.800378 0.77993 1.33723 0.656294 0.608887 1.16611 0.535095 0.523588 0.424987 0.398119 0.391905 0.683968 1.18738 0.539025 0.292606 0.264816 0.429228 0.260028 0.641575 0.172575 0.146493 0.136951 0.242252 0.104843 0.102726 0.270198 0.481004 0.126989 0.0796329 0.25572 0.0653813 0.0291239 0.0123703
threshold=0 143.50000000000003 1899.5000000000002 89.500000000000014 291750.00000000006 154.50000000000003 1 1977.5000000000002 2 19193.000000000004 189200.00000000003 50.549062800000009 157.01933901515883 50.818634950000011 78.175093272812902 1.0000000180025095e-35 4.4405940500000005 18244.000000000004 318750.00000000006 1930.5000000000002 5.5000000000000009 85.500000000000014 3 2.5000000000000004 198.50000000000003 229500.00000000003 39.320632978300459 6895.5000000000009 1939.5000000000002 1.0000000180025095e-35 4 1.0000000180025095e-35 2.5000000000000004 1.0000000180025095e-35 1.0000000180025095e-35 1.0000000180025095e-35 1961.5000000000002 252.50000000000003 44.661303626637427 1952.5000000000002 97.887893701856584 93.500000000000014 1.0000000180025095e-35 100.74852492878868 255500.00000000003 3.2587785000000005 5.6810826500000005 3.6197895000000004 5 273625.00000000006 50.173268910553041 5.5586200500000009 273625.00000000006 1899.5000000000002 203500.00000000003 6 1.0000000180025095e-35 51.302058500000008 138.93064696757435 63.500000000000007 51.045097600000013 76796.500000000015 7 1.0000000180025095e-35 1.0000000180025095e-35 158.50000000000003 5358.5000000000009 118.50000000000001 75.500000000000014 47.500000000000007 192250.00000000003
decision_type=9 2 2 2 10 2 9 2 9 2 8 2 2 2 2 2 2 2 10 2 2 2 9 2 2 10 2 2 2 2 9 2 2 2 2 2 2 2 2 2 2 2 2 2 8 2 2 2 9 10 2 2 8 2 10 9 2 2 2 2 2 2 9 2 2 2 2 2 2 2 8
left_child=1 2 14 11 21 6 7 8 9 -5 15 12 17 -11 -1 16 -8 -2 19 20 25 -4 23 24 -7 -13 -27 28 29 -12 31 -29 -3 34 -10 36 37 -25 -14 40 -23 -40 -21 -44 -32 -35 53 -30 49 50 -24 -52 -38 54 -34 56 -37 59 -51 60 -20 -41 63 64 -50 -65 67 -64 -17 -55 -68
right_child=3 32 4 5 -6 22 10 -9 33 13 27 18 38 -15 -16 68 -18 -19 57 42 -22 39 48 35 -26 26 -28 30 47 -31 44 -33 46 45 -36 55 52 -39 41 61 -42 -43 43 -45 -46 -47 -48 -49 62 58 51 -53 -54 69 -56 -57 -58 -59 -60 -61 -62 -63 66 65 -66 -67 70 -69 -70 -71 -72
leaf_value=-0.023981182639145445 -0.099279639210316295 -0.026679871823575379 -0.10023877964246412 -0.04853281571795072 -0.033244701670335879 -0.021068215223973948 -0.066024580840445268 0.041101607329657071 -0.019211715890366705 -0.037786408362209638 -0.048599490515887238 -0.12553609614789435 -0.043714616069056807 -0.06522581152043537 -0.052190346296287278 -0.00035618867159796654 -0.0025146253208856413 -0.059754536847859661 0.0023952505146865011 0.0046034202730349744 0.0037750523461426116 -0.026149952122204601 -0.039146953155995035 -0.030808842058247785 -0.064136412226703424 -0.019723307474116242 -0.01015775106616597 -0.021379330752280719 -0.0067377247099410136 -0.029554622998797707 -0.0022179371098004835 0.00096225850165398811 -0.052583523176818199 -0.028011389609692114 -0.06237934234313313 -0.032097655189221919 -0.026094807242428943 -0.0031254955801575742 -0.02968077886609187 0.0047395979083853009 -0.02991651128269485 0.0016178031021916591 -0.082812124272978224 0.0011514039211646232 0.0087667325853077842 0.0068189448214176079 -0.0077701754766126658 0.0032623759503203056 -0.035991482602712427 0.0047280792010841862 0.0029357567683343626 -0.045178876361726544 0.02012924547980843 -0.035390019290002725 0.0058387266640440453 0.014579742188466369 0.0093248877168601481 -0.056303951490996249 -0.00020564610643603693 0.0029868551332745351 -0.027237232789540461 -0.043958858148532801 0.0053404318270340711 -0.010904126807695603 0.0023026704795660953 0.025594460903915317 0.005311244469248271 -0.0073833797234070346 -0.022546416032930196 0.0077965375782443926 0.027140134856354588
leaf_weight=50.188889265060425 43.777777552604675 49.177777647972107 39.922222495079041 56.94444465637207 41.344444632530212 43.366666436195374 74.600000023841858 341.43333220481873 327.37777841091156 108.29999995231628 81.066666960716248 44.088889122009277 69.58888852596283 110.84444439411163 65.6333327293396 85.399999976158142 82.766666889190674 39.800000190734863 90.022222399711609 167.18888890743256 62.366666793823242 67.255555272102356 55.633333444595337 113.60000002384186 67.722222328186035 46.377777934074402 51.800000190734863 318.87777888774872 41.844443678855896 104.01111078262329 996.14444422721863 1367.0444424152374 46.522222280502319 52.744444370269775 73.766666054725647 83.300000071525574 99.577778220176697 69.511111736297607 45.655555725097656 56.666666626930237 61.244444131851196 92.955555558204651 57.711110711097717 64.100000262260437 9867.8777812719345 163.25555551052094 45.511110901832581 400.69999957084656 107.43333303928375 643.97777760028839 173.34444379806519 78.0666663646698 217.78888869285583 63.466666698455811 56.711110830307007 1025.1444454193115 161.5666663646698 49.155555725097656 38.388888955116272 359.26666676998138 73.966667056083679 35.244444489479065 627.97777771949768 65.666666388511658 259.20000028610229 1521.0444507598877 534.05555653572083 45.988888621330261 43.544444680213928 438.46666777133942 33622.577801942825
leaf_count=24 27 27 19 28 21 25 42 174 173 55 38 23 36 59 30 48 39 18 46 87 29 35 29 65 31 24 26 172 21 53 497 690 22 26 39 44 48 35 24 34 30 46 30 33 5133 81 21 201 61 333 85 37 103 32 28 532 80 29 23 182 40 21 321 32 132 786 261 25 23 226 17133
internal_value=0.0014028 -0.00887067 -0.0230428 0.00161018 -0.0151694 0.00177655 0.000474513 -0.00714715 -0.010929 -0.0209968 0.00117797 -0.00503724 -0.0136823 -0.0154007 -0.0434908 -0.00870115 -0.0165609 -0.0306776 -0.00266894 -0.00679095 -0.0143353 -0.0105022 0.00225916 -0.000437536 -0.0132154 -0.0217229 -0.0149505 0.00139364 -0.00302882 -0.0117728 0.00161486 -0.00100321 -0.000538874 -0.00598276 -0.00918584 0.000363015 -0.00332925 -0.00987594 -0.00683761 -0.00732135 -0.0124257 -0.00236653 -0.00144271 -0.00689987 0.00202022 -0.000307536 0.000566931 0.00063129 0.00239298 0.000379476 -0.00359669 -0.000620099 0.000451321 0.00128001 -0.00340084 0.0018184 -0.00115035 0.000886673 0.00217485 0.00142792 -0.00100322 -0.000172875 0.00244701 0.00169164 -0.000784545 0.00227455 0.00248887 0.00139516 0.000900521 0.00224387 0.00251116
internal_weight=56828.7 1117.36 417.5 55711.3 301.678 54353.5 14698.5 1234.67 893.233 276.089 13463.9 1357.82 291.778 219.144 115.822 286.311 157.367 83.5778 1066.04 493.633 204.633 260.333 39654.9 1881.58 111.089 142.267 98.1778 13177.6 627.622 185.078 12549.9 1685.92 699.856 617.144 401.144 1770.49 500.478 183.111 208.2 220.411 128.5 138.611 289 121.811 10864 216 650.678 442.544 37773.4 989.411 307.044 251.411 317.367 605.167 103.233 1270.01 244.867 572.411 682.367 523.256 163.989 91.9111 36783.9 1953.34 366.633 1586.71 34830.6 673.967 128.944 501.933 34156.6
internal_count=29083 570 214 28513 160 27813 7592 635 461 142 6957 700 151 114 54 152 81 45 549 252 102 139 20221 963 56 73 50 6805 313 91 6492 862 356 319 212 907 251 100 106 120 65 70 150 63 5630 107 329 222 19258 507 151 122 151 308 50 656 124 297 356 268 86 55 18751 1011 193 818 17740 346 71 258 17394
cat_boundaries=0 30 63 64 97 130 131 146 180
cat_threshold=0 0 0 0 0 256 0 0 0 32 41943040 67108872 6291456 256 2147483648 0 134217728 0 33566848 134217736 268435456 16779264 10485760 256 32 0 1 4194304 2097216 131072 4194304 128 0 0 0 0 0 0 0 1179904 0 536870914 0 0 0 0 0 512 256 0 0 33554432 0 2048 0 0 0 304087296 4096 2147749888 83886080 25174017 4 80 0 0 33554432 0 557056 134217728 8388608 0 4128 2048 524288 2 524288 0 65536 0 8 0 0 0 0 0 0 0 0 0 0 67141632 71309312 268961288 0 1179648 2147483648 0 0 0 0 1048576 0 1064964 0 32 0 71303168 128 8912896 0 65536 0 0 0 0 0 0 0 0 0 0 0 0 67403776 536870912 8 280825856 134217730 131072 4 0 0 0 0 0 134217728 0 0 4096 0 524288 0 0 0 65536 8192 1024 0 512 0 16384 0 1048576 2048 8 0 0 0 0 0 4 67108880 1048576 0 0 553648128 1 0 0 0 0 536870912 0 134217728 0 1048576 16818178 0 4
is_linear=0
shrinkage=0.10158


Tree=7
num_leaves=75
num_cat=11
split_feature=6 27 36 42 43 32 5 30 49 5 6 28 32 7 32 38 45 28 32 39 39 6 27 10 39 6 29 42 29 39 51 16 32 51 5 6 25 28 47 32 6 44 42 51 48 32 44 51 50 26 50 32 33 39 45 51 36 10 39 43 6 28 32 39 51 43 45 30 10 43 43 36 42 51
split_gain=8.96523 11.838 6.14979 4.1768 3.8576 3.84986 3.8366 2.54791 2.72495 2.20724 5.43614 2.97998 3.50691 2.71093 4.57009 5.86864 2.99203 2.20203 3.05338 2.07874 1.45588 1.35929 1.67954 2.33784 0.935759 0.921433 0.947229 1.10863 0.798652 1.47715 0.720399 1.04085 1.40189 1.49573 0.73272 0.703009 1.86869 1.92959 0.637716 0.606154 0.47867 0.387787 0.365664 0.357494 0.286973 0.532563 0.864636 0.255633 0.445863 0.235426 0.370156 0.228982 0.410661 0.191604 0.165617 0.164299 0.260425 0.151693 0.312826 0.146609 0.135371 0.314776 0.422847 0.173262 0.116943 0.108513 0.455012 0.0698624 0.0687668 0.0340007 0.0329766 0.0267239 0.0228167 0.0177701
threshold=0 2.5000000000000004 9.5000000000000018 100.95900737948978 91.06388081961255 102.50000000000001 1 50.658724600000006 121.50000000000001 2 3 1931.5000000000002 200.50000000000003 4 137.50000000000003 137.50000000000003 102.18961391392908 1899.5000000000002 169.50000000000003 64.708333333333357 48.63333333333334 5 2.5000000000000004 1.0000000180025095e-35 34.690476190476197 6 3.5000000000000004 85.595206860863925 2.5000000000000004 42.928571428571438 2141.6864018490037 1.0000000180025095e-35 68.500000000000014 2087.3569651741295 7 8 1.0000000180025095e-35 1981.5000000000002 64.767366392145703 60.500000000000007 9 52.05234887306451 113.6977515628291 1759.1750841750843 189200.00000000003 130.50000000000003 86.690870289179244 1401.1643490543747 17301.000000000004 1.0000000180025095e-35 32177.500000000004 147.50000000000003 1.0000000180025095e-35 198.45000000000002 113.34465642533415 1348.2817303469481 1.0000000180025095e-35 1.0000000180025095e-35 50.366666666666674 53.452513790547719 10 1949.5000000000002 190.50000000000003 39.366666666666674 1067.889817250136 17.91011015752515 40.452529915407688 50.39492280000001 1.0000000180025095e-35 81.896926453204074 22.118489120890334 20.500000000000004 88.755825367552902 1978.840106270635
decision_type=9 2 2 2 2 2 9 2 2 9 9 2 2 1 2 2 2 2 2 8 10 9 2 2 10 9 2 2 2 10 2 2 2 2 9 9 2 2 2 2 9 2 2 2 10 2 2 2 2 2 2 2 2 10 2 2 2 2 10 2 9 2 2 10 2 2 2 2 2 2 2 2 2 2
left_child=1 2 3 4 -1 6 7 8 28 10 11 12 19 14 15 16 -12 18 -3 20 -7 22 23 -15 -19 70 27 -27 -2 39 31 32 -8 34 -34 36 37 -11 -28 -30 -24 -32 53 -44 45 46 -37 48 -16 50 -43 52 -26 -23 -9 56 -47 58 -38 -49 61 62 -46 -63 -62 66 -51 -57 -33 -67 -13 -70 -66 -14
right_child=5 17 -4 -5 -6 9 30 54 -10 35 13 25 73 21 47 -17 -18 24 -20 -21 -22 42 40 -25 51 26 38 -29 29 -31 41 68 33 -35 -36 44 57 -39 -40 -41 -42 49 43 -45 60 55 -48 59 -50 65 -52 -53 -54 -55 -56 67 -58 -59 -60 -61 64 63 -64 -65 72 69 -68 -69 71 -71 -72 -73 -74 -75
leaf_value=-0.04688884993025446 -0.010844937016423367 -0.021700126388630218 -0.017373130921319677 -0.090056522506379758 -0.021545173652103254 -0.084179975662548659 -0.043091088890249159 0.007728924391666319 -0.094571612577123917 -0.04865496850538769 -0.03285832210090045 -0.0082723588687463115 0.0043542710475304976 -0.02633227213386477 -0.035170404912387543 -0.043662753348091325 -0.022811952735564349 -0.028830145933072756 -0.080252987364803199 -0.035039886492006754 -0.027259833106078012 0.0065061669748490026 -0.0029644361389638768 -0.011505170949271514 -0.071460430088553337 -0.038993701605313111 -0.023223625619214854 -0.025838182443608932 -0.036891054750086763 -0.038000265198663327 -0.026497346506139 -0.034771936507537037 -0.02712600334411952 -0.017719813527044766 -0.00042815919700650855 -0.0031694297324192065 -0.0078906846677437217 0.051394701917197215 -0.011563355446919764 -1.9274690157243701e-05 0.0045463700768855406 -0.02811884208254135 -0.0084016934873687651 0.0027595953875354526 -0.028205653078842683 -0.024019810112588955 -0.059317802667192207 -0.023618917315400577 0.0032493577404980483 0.017534904421114737 0.0081043519166636296 0.005083129837651427 0.010549678488861004 -0.079120161454804189 -0.23608714373440029 -0.0017082442874026863 0.0034987242087388551 0.026451080245964032 0.0064618348257649968 0.0017505251586438296 -0.019010565600254374 -0.055428090509901592 0.012007741924751271 0.015245419380362423 0.034472014995966936 0.0080635919537522856 -0.014764351820195865 0.016692599392683763 0.0025420953680368899 -0.021266158777786939 0.0043871964384345928 -0.0078196661200471539 0.015855712168721586 -0.011973020468492239
leaf_weight=86.255555152893066 45.988889217376709 74.055555820465088 57.388888955116272 42.122222304344177 42.844444036483765 98.833333253860474 67.066667079925537 82.788888573646545 66.488889336585999 62.888889074325562 50.688888549804688 42.400000095367432 52.788888812065125 87.211110591888428 47.177777886390686 46.866666674613953 150.85555601119995 78.844444155693054 76.466666698455811 43.899999856948853 52.144444346427917 10204.944447159767 877.34444618225098 215.77777850627899 55.444444417953491 122.68888926506042 50.677777647972107 194.43333303928375 39.555555462837219 42.888889193534851 84.200000047683716 64.666666865348816 253.0666663646698 50.55555534362793 266.29999923706055 67.05555522441864 43.366666674613953 46.711111187934875 177.97777712345123 49.800000071525574 731.57777714729309 51.755555272102356 136.53333282470703 318.06666707992554 126.68888890743256 66.622222304344177 40.188889145851135 74.266667246818542 52.588889241218567 128.98888874053955 60.411110758781433 497.61111164093018 78.577777743339539 50.122222065925598 48.300000071525574 152.41110980510712 71.48888885974884 375.27777767181396 69.07777738571167 394.16666615009308 48.133333683013916 123.81111109256744 117.28888845443726 1252.4444434642792 29795.300032615662 937.98888993263245 39.188889145851135 638.03333222866058 294.55555498600006 41.288888573646545 228.33333265781403 41.999999761581421 5341.4555579423904 40.588888764381409
leaf_count=42 22 36 36 19 25 50 36 37 36 32 26 21 26 47 24 24 81 42 37 21 28 5272 439 117 28 66 30 99 23 23 42 33 136 27 144 35 23 25 87 26 368 25 70 166 69 34 22 39 26 65 31 255 39 26 24 76 34 181 32 196 26 61 64 632 15223 485 22 319 150 24 113 22 2720 21
internal_value=0.00156142 -0.0075237 -0.0281303 -0.0377664 -0.0286284 0.00174009 -0.0019597 -0.0113519 -0.0177715 0.00193301 0.000865012 -0.00595249 -0.0148821 0.00142958 -0.00421069 -0.0157494 -0.0081988 -0.0021345 -0.013287 -0.0226316 -0.0169351 0.00179761 -0.000697075 -0.00763607 0.000231051 -0.00287004 -0.00521715 -0.00890441 -0.0112022 -0.015207 -0.000427613 -0.00243899 -0.0049911 -0.00335283 -0.00172558 0.00233624 -0.0011183 -0.0131104 -0.000327642 -0.00773724 0.000606016 0.0011232 0.00224322 -0.000573421 0.00239106 0.000723897 -0.00604708 0.000763227 -0.00390044 0.00156967 -0.00286827 0.00153463 -0.00218948 0.00237028 -0.000223163 0.00150711 -0.00172323 0.00155747 -0.00171258 0.0017579 0.00243862 0.00149418 -0.00185804 0.00209956 0.00248097 0.00200398 -0.000378798 0.00207195 0.00161297 0.0024133 0.00198095 0.00219588 0.00248854 0.00130283
internal_weight=56828.7 1089.61 228.611 171.222 129.1 55739 2757.84 375.811 244.722 52981.2 14543 1104.77 288.256 13438.2 816.611 248.411 201.544 861 150.522 194.878 150.978 12621.6 1911.91 302.989 710.478 816.511 545.778 317.122 178.233 132.244 2382.03 1038.21 636.989 569.922 519.367 38438.2 597.322 109.6 228.656 89.3556 1608.92 1343.82 10709.7 454.6 37840.9 1035.8 107.244 568.2 99.7667 1259.62 112.167 631.633 134.022 10255.1 131.089 928.556 138.111 487.722 112.444 468.433 36805.1 1620.23 243.978 1376.26 35184.9 1147.46 168.178 790.444 401.222 979.278 270.733 336.556 35136.8 93.3778
internal_count=29083 559 122 86 67 28524 1433 191 130 27091 7483 562 146 6921 416 131 107 437 73 99 78 6505 971 164 364 416 282 165 94 72 1242 548 343 307 280 19608 293 57 117 49 807 694 5534 236 19315 520 57 285 50 652 56 322 67 5298 61 463 68 236 55 235 18795 826 133 693 17969 596 87 395 205 509 134 172 17943 47
cat_boundaries=0 32 33 34 67 68 101 134 135 168 200 233
cat_threshold=0 0 0 0 0 0 0 0 33554432 0 33554432 0 6293504 0 2147483648 16777216 134217728 0 2181050496 8 268435456 16779264 8912896 256 32 0 1 4194304 2097216 131072 0 16384 768 448 0 0 33554432 0 532480 0 0 0 4128 1048904 0 0 8913408 0 65536 128 0 0 0 0 0 0 0 0 0 0 536870912 337641728 4096 266250 19922944 0 4 96 0 0 0 0 68190208 16384 1114368 0 2048 32 69206018 130 0 0 0 0 0 0 0 0 0 0 0 0 0 0 0 0 671088640 1536 269058048 16785667 131088 0 0 0 0 532480 0 0 0 0 0 0 0 0 0 0 0 0 0 0 0 0 0 0 0 0 0 0 268435456 0 262152 2097152 0 4 144 0 0 0 0 0 0 0 0 0 0 524288 536870912 1024 0 0 0 8 0 0 0 0 0 0 0 0 0 0 0 16384 256 0 8388608 2 0 0 0 0 1048576 16384 1048576 0 2048 32 2097152 0 0 0 0 0 0 0 0 0 0 0 0 0 0 0 0 0 671088640 1536 268500992 16785408 33554432 0 8454144 0 0 134217728 0 0 1073758208 8 138412032 0 16384 0 0 0 64 0 0 0 0 1 0 0 0 0 0 33554432 0 2 1048576 8192 2147483648
is_linear=0
shrinkage=0.10158


Tree=8
num_leaves=72
num_cat=14
split_feature=6 27 28 27 6 28 25 30 31 33 39 50 2 39 27 6 5 39 49 17 36 49 10 39 6 25 43 39 5 48 28 34 5 41 7 28 27 47 39 5 51 6 28 2 27 50 51 28 39 49 51 31 28 31 47 6 10 27 43 28 31 26 7 41 46 45 43 50 42 42 45
split_gain=6.111 7.40237 4.18433 2.75236 5.68352 5.84672 4.1812 3.0488 3.16899 3.35019 1.91054 1.76084 1.73624 2.49009 2.05803 1.66083 1.64777 2.03095 1.42061 1.33754 1.18352 1.34158 1.07165 0.862939 0.700879 0.622967 1.50072 0.546506 0.534521 0.884061 1.06017 1.03532 0.452238 0.703104 0.413951 0.815179 0.783003 1.14661 0.401628 0.395512 1.18188 0.384763 0.514602 0.565 0.629889 0.332291 0.276044 0.355716 0.264856 0.244698 0.244083 0.158289 0.49822 0.144865 0.123068 0.109346 0.427931 0.106114 0.100072 0.100019 0.0916896 0.0822083 0.0800087 0.252316 0.0750826 0.0725883 0.0704714 0.0384216 0.0311495 0.0182629 0.0123007
threshold=0 2.5000000000000004 1921.5000000000002 2.5000000000000004 1 1930.5000000000002 1.0000000180025095e-35 50.519175449999999 4.3746434499999998 1.0000000180025095e-35 59.916666666666679 33357.000000000007 2 45.071428571428577 3.5000000000000004 3 4 43.354166666666679 41.500000000000007 1.0000000180025095e-35 1.0000000180025095e-35 81.500000000000014 1.0000000180025095e-35 37.81666666666667 5 1.0000000180025095e-35 83.799944962133551 52.071428571428577 6 316375.00000000006 1952.5000000000002 3.5000000000000004 7 92.258733050715961 8 1945.5000000000002 3.5000000000000004 54.119424283491881 35.550000000000004 9 2134.4889010687862 10 1963.5000000000002 11 3.5000000000000004 12008.000000000002 1226.5175531290363 1939.5000000000002 71.366666666666688 97.500000000000014 1348.2817303469481 5.8529864500000004 1931.5000000000002 4.9470982500000007 107.68730897570309 12 1.0000000180025095e-35 1.0000000180025095e-35 25.686099273710365 1850.5000000000002 5.4813066500000005 2.5000000000000004 13 24.63191128490153 57.41689010704048 133.13266671013668 63.493606593525463 19102.000000000004 115.5777019424779 104.01180286209305 3.5085426928260008
decision_type=9 2 2 2 9 2 2 2 2 2 10 2 9 10 2 9 9 10 2 2 2 2 2 10 9 2 2 8 9 8 2 2 9 2 1 2 2 2 8 9 2 9 2 9 2 2 2 2 10 2 2 2 2 2 2 9 2 2 2 2 2 2 1 2 2 2 2 2 2 2 2
left_child=1 2 -1 4 5 6 10 8 9 -6 -2 -8 13 14 -3 16 17 20 -10 27 21 22 -5 -23 58 26 -26 -4 29 30 31 -9 33 53 35 36 37 -17 -20 40 48 42 43 44 -36 -27 47 -43 -7 -22 -40 59 -53 -14 -37 56 -18 -32 -19 -48 -41 69 63 -31 -45 -15 -38 -60 -64 -44 -30
right_child=3 12 19 15 7 39 11 28 18 -11 -12 -13 32 65 -16 34 55 24 38 -21 49 23 -24 -25 25 45 -28 -29 70 62 57 -33 -34 -35 41 54 66 -39 50 60 -42 46 61 64 -46 -47 51 -49 -50 -51 -52 52 -54 -55 -56 -57 -58 -59 67 -61 -62 -63 68 -65 -66 -67 -68 -69 -70 -71 -72
leaf_value=-0.042125879665571825 -0.11694544033327123 -0.032234564661663564 -0.025490510618264437 -0.033015243928921655 -0.068481539917875464 0.0018897416321586734 -0.015361590384821171 -0.014075143563613574 -0.030660810501364648 -0.075217919043299955 -0.0088321862280763431 -0.023685692678536405 0.011445666606849611 -0.0091524181023710811 -0.0047684364958809553 0.0029466553935129677 -0.057290027350063888 -0.0006113841243821171 -0.033143660709311601 -0.080908579243181081 -0.010164158800100222 -0.043712595882366791 -0.0021387391682234436 -0.030895792145404999 -0.0094942199706925471 -0.010984566807895104 -0.061584678969165009 0.0045248413869707895 -0.021752987577276128 -0.00064556333054339565 -0.041057687638967222 -0.043271979482176641 0.016749296058999993 -0.018050503973522449 -0.013584636333282316 0.0074560123366952166 0.0035758744288908258 -0.02403305504680377 -0.020147835884266635 0.0067965881768018346 -0.041891484337959993 -0.042546318574905082 0.027369178957688412 -0.023109214257813395 0.0040583362232946337 -0.00087878734211619964 0.0022784741616017744 0.0012045741853482447 -0.031139616407730452 0.00034801972376280466 0.00052990487282233393 -0.041551455284402204 0.0094912052269808048 -0.0021445745704081077 -0.0015148011355311174 0.023132562273570537 0.02141076880646085 0.0065985605747210718 -0.0056542271965111775 0.018523160266097939 -0.041400278908813835 -0.0033365642906527169 0.0039583482527352715 0.0052703093449576639 0.013904662470982163 0.0016015279125384252 -0.021579877346062162 0.005465679567971231 -0.0070710175181609523 -0.014923653259307503 0.010369978807511655
leaf_weight=71.133333206176758 62.055555462837219 51.311111092567444 38.977777719497681 65.977778553962708 54.033333301544189 95.811111569404602 78.788888931274414 489.31111073493958 43.411111354827881 81.977778196334839 62.233333230018616 48.299999952316284 117.66666638851166 39.644444465637207 53.144443988800049 41.088889002799988 82.788888812065125 51.788888692855835 51.922222495079041 48.822222113609314 44.122222185134888 46.644444942474365 97.311111211776733 57.011111378669739 121.67777800559998 59.988889217376709 44.777778029441833 46.477778077125549 76.755555868148804 63.066666960716248 44.955555438995361 94.766666769981384 466.31111264228821 71.911110877990723 449.31111073493958 502.63333547115326 77.266666531562805 73.600000381469727 50.51111114025116 174.58888924121857 44.566666483879089 69.199999928474426 2003.333335518837 52.488889098167419 391.50000071525574 255.87777805328369 765.71111285686493 84.644444465637207 53.733333230018616 82.788889288902283 359.88888931274414 84.877777576446533 244.57777714729309 39.411111354827881 45.633333444595337 1330.0222233533859 245.9222217798233 383.91111171245575 127.00000059604645 39456.444468140602 43.788888335227966 84.5 1128.6555544137955 427.31111061573029 559.11111068725586 71.144444227218628 39.488889217376709 495.66666686534882 42.099999785423279 50.355555534362793 3371.1222207546234
leaf_count=39 31 25 22 38 29 51 40 253 23 42 34 26 60 22 28 21 43 28 27 24 21 24 51 26 60 27 25 24 38 33 24 50 237 37 234 256 41 36 25 88 25 36 1017 29 194 136 391 46 29 42 182 43 131 20 25 668 118 199 64 20224 21 40 575 230 286 35 20 247 21 25 1701
internal_value=0.00169155 -0.00572078 -0.023181 0.00184074 2.06552e-05 -0.00887487 -0.0212137 0.000905786 -0.00575288 -0.019506 -0.0344482 -0.00823764 -0.00184057 -0.00957569 -0.0212571 0.0021211 -0.000114576 -0.00248681 -0.00204798 -0.0125969 -0.00880123 -0.0126384 -0.00688682 -0.0216686 -0.0003572 -0.00327404 -0.00836704 -0.00491064 0.00160545 0.000519531 -0.00184348 -0.00465889 0.00068366 -0.00293366 0.0022798 -5.36641e-05 -0.00510726 -0.0110613 -0.000394552 -0.00156388 -0.00475747 0.00232088 0.00130011 -0.000171702 -0.00187016 -0.000689958 0.00241057 -0.00188135 -0.000666579 -0.000722452 0.000671572 0.00242746 0.000209479 0.000748759 0.00207952 0.00210464 0.000398002 0.00199097 0.00175146 0.00244562 0.00142835 0.00230593 0.00196371 0.000814552 0.00215827 0.000591714 0.000748998 0.00213446 0.00241715 0.0024337 0.00243897
internal_weight=56828.7 1115.96 205.411 55712.7 7427.57 663.867 251.378 6763.7 641.744 136.011 124.289 127.089 910.544 215.244 104.456 48285.1 3209.37 1550.63 505.733 134.278 393.856 266.944 163.289 103.656 1156.78 482.322 166.456 85.4556 6121.96 2674.08 1012.94 584.078 695.3 228.989 45075.8 779.711 231.444 114.689 462.322 412.489 194.111 44296.1 3590.6 1452.41 840.811 315.867 40705.5 153.844 149.544 126.911 410.4 40551.6 329.456 157.078 548.267 1658.73 328.711 428.867 674.456 40222.2 218.378 2138.19 1661.13 490.378 611.6 110.789 116.756 622.667 1170.76 2053.69 3447.88
internal_count=29083 573 109 28510 3797 345 131 3452 328 71 65 66 464 110 53 24713 1618 789 257 70 202 139 89 50 587 248 85 46 3124 1385 526 303 354 117 23095 399 118 57 234 214 105 22696 1825 743 428 163 20871 82 80 63 207 20789 174 80 281 829 161 223 339 20615 109 1082 859 263 315 57 61 311 596 1042 1739
cat_boundaries=0 30 63 64 97 98 131 132 133 134 135 168 169 202 203
cat_threshold=0 0 0 0 0 256 0 0 128 67108864 33554432 0 4194304 4194305 0 150994944 167772160 258 2147492224 8 285212672 50333696 8388608 512 32 0 266241 0 2097216 131072 0 0 0 0 0 0 65536 536870912 0 0 67108864 2 67111424 0 0 0 0 0 0 0 0 0 8 0 0 0 0 0 0 262664 203161600 131074 131328 12 0 0 0 0 524288 0 0 0 288 1179680 2621440 128 524288 0 65536 0 0 0 33554432 134217728 0 0 0 0 0 0 0 105152640 134221824 788032 16777216 8536064 130 480 0 0 0 0 0 0 0 0 256 1048576 2097152 0 0 0 0 0 0 0 0 0 0 0 0 0 0 0 0 104857728 0 263168 0 8519680 2 960 960 64 704 0 0 0 0 0 134234112 1048576 0 0 0 4194304 0 0 0 0 0 0 0 0 0 0 0 0 0 0 0 0 2097408 536870912 2 269484032 16818176 4 268 0 0 0 0 0 0 0 0 0 0 2097152 0 0 0 0 0 0 0 0 0 0 0 0 0 0 0 0 0 0 0 0 8388608 2 2
is_linear=0
shrinkage=0.10158


Tree=9
num_leaves=80
num_cat=16
split_feature=6 32 40 39 44 6 37 40 32 32 6 5 40 32 30 10 45 32 51 41 7 9 46 6 5 39 32 50 33 29 41 42 39 42 6 5 40 33 40 32 50 33 17 39 6 40 30 51 32 6 44 34 30 6 47 32 50 25 48 2 39 46 5 47 39 6 5 40 45 40 42 32 39 30 39 39 46 27 32
split_gain=8.2611 8.98907 6.11161 9.26444 4.48137 3.95358 4.75588 3.94444 2.90608 2.38806 5.44183 3.68457 3.72445 2.15868 2.04341 1.77683 1.65672 3.24288 1.52937 1.39752 1.35685 1.3206 1.39423 1.29026 1.76219 1.20785 2.42655 1.18283 2.78214 1.1037 1.44439 1.57707 1.00834 2.83168 0.998764 0.99582 0.969929 1.29873 0.969422 0.733364 0.5383 1.12781 0.532234 0.505136 0.493739 0.974654 0.536704 0.439891 0.432407 0.362155 0.698858 0.257918 0.348172 0.248763 0.273061 0.234718 0.411385 0.220374 0.15784 0.358726 1.00643 0.369499 0.223669 0.471392 0.145725 0.122919 0.35203 0.506982 0.0979407 0.0698604 0.172725 0.0426921 0.0324128 0.031566 0.0306784 0.026082 0.0257296 0.0155442 0.0487358
threshold=0 138.50000000000003 1915.0000000000002 34.291666666666679 67.309771177478765 1 1.5000000000000002 1955.0000000000002 130.50000000000003 150.50000000000003 2 3 1945.0000000000002 120.50000000000001 50.628379150000008 1.0000000180025095e-35 40.737189946222962 133.50000000000003 1865.4445165476966 61.667719204484833 4 1.0000000180025095e-35 73.687054337738374 5 6 59.690476190476197 127.50000000000001 19882.000000000004 1.0000000180025095e-35 3.5000000000000004 87.1018629212886 41.002068089003778 41.25833333333334 105.25248520063798 7 8 1915.0000000000002 1.0000000180025095e-35 1935.0000000000002 147.50000000000003 5698.0000000000009 1.0000000180025095e-35 1.0000000180025095e-35 39.916666666666679 9 1945.0000000000002 50.807094250000006 1348.2817303469481 49.500000000000007 10 113.04991576923165 10.500000000000002 50.868235349999999 11 68.007476910975512 128.50000000000003 15702.000000000002 1.0000000180025095e-35 284500.00000000006 12 43.775000000000006 51.549360409590491 13 73.825021066146562 145.58333333333334 14 15 1955.0000000000002 142.6676342245062 1955.0000000000002 97.473046759347611 149.50000000000003 79.583333333333357 51.314934900000004 58.366666666666674 68.708333333333357 71.5835594036662 2.5000000000000004 160.50000000000003
decision_type=9 2 2 10 2 9 2 2 2 2 9 9 2 2 2 2 2 2 2 2 1 2 2 9 9 8 2 2 2 2 2 2 8 2 9 9 2 2 2 2 2 2 2 10 9 2 2 2 2 9 2 2 2 9 2 2 2 2 10 9 10 2 9 2 10 9 9 2 2 2 2 2 10 2 10 8 2 2 2
left_child=1 2 3 -1 -5 6 7 8 13 10 11 12 16 14 -2 -4 -7 -18 36 -20 21 22 47 24 29 51 -27 28 -14 30 31 -11 33 -3 35 38 37 -10 -22 -29 41 -36 43 -17 45 46 -34 -12 -42 50 -26 71 -53 54 74 56 -9 -52 59 60 -25 -62 63 -61 -64 66 67 -60 -57 70 -51 -13 -31 -37 -8 -38 -47 78 -67
right_child=5 32 15 4 -6 9 53 55 18 23 20 25 27 -15 -16 42 17 -19 19 -21 34 -23 -24 58 49 26 -28 39 -30 72 -32 -33 44 -35 40 73 75 -39 -40 -41 48 -43 -44 -45 -46 76 -48 -49 -50 69 57 52 -54 -55 -56 68 -58 -59 65 62 61 -63 64 -65 -66 77 -68 -69 -70 -71 -72 -73 -74 -75 -76 -77 -78 -79 -80
leaf_value=-0.20803430701120401 -0.10727388250349741 0.0034972201585316224 -0.013314594978172918 -0.02644222751680738 -0.025433590595506806 -0.022474206003018176 0.014370245516970101 0.00089682892417843627 -0.039272269564073814 -0.0029976360267644372 -0.05264496966143082 0.0077035427635010574 -0.035637368963644299 -0.02843462515746787 -0.054532717351640704 -0.0095052592200194526 -0.063454002408819321 -0.030050780807992752 -0.0017156945718311239 -0.036143440158159658 -0.020767931795651642 -0.020551258879936311 -0.0039860601883660845 -0.04898113232787326 -0.013991312272547102 -0.026017396332054962 0.0069713782303842424 -0.0045704794999992171 -0.1194143971231086 0.027122733127678999 -0.0080298677835553244 -0.0051904651896356509 -0.028052594630344617 -0.044454541122924171 -0.072689884230055374 0.0015386263422857576 0.00031266787362633982 -0.0093733048823931454 -5.0218757519929067e-05 -0.0060521248818299206 -0.087378173795729347 0.0013873762689035479 -0.037194837792523819 0.0054940531355305352 0.012930864841508658 -0.0082227152980502861 -0.019875272381552799 1.1266334404689944e-07 0.0078424790892191159 0.030267266879317266 -0.053225412795634627 -0.014350993684508987 -0.0021344616486991923 0.0067308894893643965 -0.0039387386236017638 0.010850184218279371 -0.025694302987465379 -0.0018384220838838371 -0.0061414745412495765 -0.019991059221291178 -0.019387792996207635 0.0012395887691763056 0.010245915849920633 -0.024183944818369 -0.006206244399894389 0.00055514902529502715 0.022860097443008074 0.010171675373734335 -0.00072876395949203693 0.042811157333127584 -0.074520908502609118 -0.0036369687572467115 -0.0077630419241860437 -0.001902481469641365 -0.020775302053747089 -0.0063527434246366567 -0.0018722531145098672 0.025197261535695441 0.015466407685280879
leaf_weight=52.155556201934814 73.244444489479065 74.988888740539551 46.166666865348816 55.622222542762756 49.488888502120972 48.777777552604675 84.188889026641846 49.122222065925598 77.188888430595398 70.299999713897705 101.44444465637207 555.53333306312561 41.777777194976807 42.000000238418579 72.922221779823303 48.755555272102356 157.81111073493958 61.222222685813904 64.322222709655762 48.433333158493042 459.64444398880005 45.100000262260437 42.166666746139526 45.355555057525635 45.888888716697693 51.04444432258606 72.95555579662323 308.74444377422333 102.16666698455811 135.31111061573029 54.088889002799988 287.9444454908371 53.877777457237244 44.055555820465088 101.83333313465118 617.40000009536743 103.95555555820465 72.933333992958069 495.99999916553497 44.97777795791626 83.911111354827881 263.35555505752563 55.822222232818604 95.633333325386047 481.26666641235352 34.644444346427917 47.00000011920929 487.33333313465118 9845.1555603742599 323.56666707992554 42.388888955116272 49.52222216129303 46.055555701255798 921.15555679798126 74.922222971916199 236.38888919353485 49.166666388511658 138.51111137866974 153.38888883590698 172.36666703224182 47.411111235618591 232.71111083030701 5248.2888898849487 40.766666412353516 89.266666412353516 292.96666669845581 920.12222301959991 211.66666698455811 43.344444751739502 1121.1999992132187 45.322222232818604 44.500000476837158 42.344443917274475 45.644444346427917 42.833333373069763 38.055555701255798 127.30000019073486 27778.50003027916 1418.7666670084
leaf_count=26 37 36 26 28 26 24 40 24 36 39 48 286 21 22 37 28 78 30 28 26 245 25 22 22 24 27 35 157 55 71 26 146 28 22 55 313 54 34 260 23 41 137 28 51 247 18 25 258 5063 167 24 23 22 457 34 122 24 70 81 88 25 115 2700 21 43 153 486 107 21 585 25 21 22 26 23 20 70 14184 712
internal_value=0.00146636 -0.00661365 -0.0191748 -0.0348086 -0.0521494 0.00165262 -0.00266886 -0.00788684 -0.0130543 0.00182343 0.00069472 -0.00489625 -0.00993038 -0.0234805 -0.0176061 -0.00917586 -0.019715 -0.0234826 -0.00819978 -0.0182392 0.00140153 -0.00299801 -0.00183889 0.00223454 -0.000100081 -0.000130279 -0.00935998 -0.00485864 -0.0126154 -0.00484135 -0.00780625 -0.00546285 -0.000812985 -0.00948537 0.00165356 -0.000691425 -0.0043151 -0.0100027 -0.00277857 -0.00169671 0.00202262 -0.00180471 -0.00502057 -0.00175672 0.000576415 -0.00290445 -0.0108427 -0.000557957 0.00216546 0.0015481 -0.00217481 0.0015151 -0.00338072 0.00181955 -0.00139148 0.000222195 -0.00404292 0.000572976 0.00238086 0.00189885 -0.00136375 0.000870447 0.00208891 -0.00112378 0.00221911 0.00247365 0.00145731 -0.0011957 0.00172292 0.00212572 0.000926307 0.00229595 0.00176829 0.00231314 0.00140809 0.00170196 0.00186759 0.00251658 0.00221874
internal_weight=56493.5 1266.78 403.644 157.267 105.111 55226.7 2094.18 971.078 593.056 53132.5 14174.1 1585.09 765.478 188.167 146.167 246.378 267.811 219.033 404.889 112.756 12589 676.044 630.944 38958.4 2306.87 819.611 124 497.667 143.944 589.989 412.333 358.244 863.133 119.044 11912.9 1618.69 292.133 150.122 955.644 353.722 10294.3 365.189 200.211 144.389 744.089 262.822 100.878 588.778 9929.07 1716.88 226.789 695.611 95.5778 1123.1 201.944 378.022 98.2889 180.9 36651.6 5876.17 325.478 280.122 5550.69 213.133 5337.56 30775.4 1285.18 365.056 279.733 1490.09 368.889 600.033 177.656 663.044 127.022 142.011 161.944 29490.2 1711.73
internal_count=28929 659 213 80 54 28270 1039 485 294 27231 7295 802 388 96 74 133 132 108 198 54 6493 353 328 19936 1199 414 62 256 76 304 211 185 446 58 6140 844 144 70 505 180 5296 192 107 79 388 141 53 306 5104 895 118 352 45 554 97 191 48 94 18737 3014 162 140 2852 109 2743 15723 674 188 143 777 192 307 93 339 63 74 88 15049 865
cat_boundaries=0 34 67 100 101 102 136 137 169 170 199 231 264 265 266 299 300
cat_threshold=0 0 0 0 4096 0 0 0 16512 0 67108864 8194 6291456 0 2147483648 0 134217744 2097152 2147483776 4 268435456 0 1048576 0 1024 0 8388608 524288 337641536 526336 0 8 0 4 0 64 0 0 0 256 32768 0 4096 0 42205440 537001988 524288 0 0 16777216 0 256 4418 520 83886081 524288 0 512 0 0 8 0 4194308 0 0 8388608 131202 0 0 0 2147483664 0 49152 2097152 0 32 149760 4194304 256 2048 0 0 0 0 524288 0 0 0 0 8 0 0 0 0 272728064 1052680 262664 67375104 2 2052 704 80 1 8 33554432 0 32768 134221828 8404992 0 0 134217760 2048 0 8389120 0 0 0 0 512 0 0 0 134217728 0 0 0 0 536870912 8388640 16777216 268437000 0 256 0 8 896 0 0 0 0 68157440 0 8196 536870912 2048 0 2097152 136 67109376 0 0 0 0 0 0 0 0 33554432 0 0 0 0 0 33816832 536870912 2 403243008 16785409 992 0 0 0 0 0 0 0 0 16512 0 0 2 0 0 0 0 0 0 128 0 0 0 0 0 0 0 0 524288 67108864 0 0 0 0 0 0 0 0 0 0 0 0 8388608 0 0 0 0 0 0 0 0 0 0 0 0 0 0 0 0 512 0 256 0 0 0 0 0 256 0 0 0 0 33554432 0 524288 0 0 0 0 0 256 0 0 524288 0 0 0 0 0 0 0 0 0 0 128 4 256 0 0 0 0 0 18432 0 0 512 8200 0 0 0 32 0 0 0 0 0 0 0 0 0 0 0 0 0 0 671088640 0 1310720 0 536870912 192
is_linear=0
shrinkage=0.10158


Tree=10
num_leaves=81
num_cat=4
split_feature=5 32 51 51 29 32 28 49 41 2 51 28 31 34 28 44 47 39 32 42 28 51 37 30 7 48 33 30 30 41 49 49 39 49 16 30 39 30 30 43 31 41 39 30 30 41 47 44 32 39 30 51 34 28 46 49 43 9 49 2 48 32 48 48 32 31 48 44 32 51 30 47 31 47 43 39 46 39 31 43
split_gain=4.15674 3.62464 3.25542 3.09281 2.40875 2.19919 2.60794 2.0641 2.17028 1.91281 2.45632 1.37963 1.51124 2.99493 1.1324 1.53572 1.63515 1.05275 0.71631 0.678865 0.631642 0.992845 0.872756 0.900449 1.89404 0.494907 0.713689 0.913911 0.718023 1.6104 0.498138 0.432614 0.395926 0.387237 0.36312 0.71515 0.649265 0.304263 0.24609 0.464592 0.209329 0.379608 0.208607 1.02261 0.19728 0.181788 0.172931 0.381261 0.170968 0.236567 0.147248 0.120517 0.110176 0.0958001 0.159598 0.776118 0.0950968 0.0838564 0.26495 0.0733085 0.160401 0.0515072 0.0509805 0.293499 0.0545754 0.0931458 0.0466761 0.128873 0.0385889 0.032577 0.0651102 0.0320166 0.0284593 0.0262659 0.0232912 0.0230549 0.021463 0.0135908 0.0165532 0.0116532
threshold=0 49.500000000000007 2143.4072975872241 2313.2605331125178 3.5000000000000004 186.50000000000003 1886.5000000000002 54.500000000000007 86.047220938986086 1 1479.9165552392458 1962.5000000000002 3.8760899500000003 1.0000000180025095e-35 1955.5000000000002 108.43301152378912 27.125570494609548 41.071428571428577 89.500000000000014 41.249196965914038 1950.5000000000002 2101.0729383620996 1.5000000000000002 50.884742299999999 2 365500.00000000006 1.0000000180025095e-35 50.628379150000008 51.032826650000011 29.189380624258149 58.500000000000007 85.500000000000014 122.10000000000001 118.50000000000001 1.0000000180025095e-35 51.028962750000005 63.083333333333336 51.11508460000001 50.778062500000011 113.89605008595119 3.2173729500000006 89.322813934590926 42.708333333333336 51.1118059 51.172526650000002 104.60414084091236 49.673120230896963 35.129823217381542 68.500000000000014 31.708333333333339 51.307632149999996 2095.0877192982462 20.500000000000004 1952.5000000000002 89.338186210722839 70.000000000000014 20.768218093563661 1.0000000180025095e-35 106.50000000000001 3 197000.00000000003 85.500000000000014 390550.00000000006 386250.00000000006 114.50000000000001 3.7638982000000003 296250.00000000006 125.51422918463238 112.50000000000001 1796.022886038995 50.628379150000008 54.119424283491881 5.1500897000000005 41.237152621985217 94.766441756015993 112.70833333333336 33.368262186055212 77.062500000000014 4.4305919500000011 1.8596911317708591
decision_type=9 2 2 2 2 2 2 2 2 9 2 2 2 2 2 2 2 8 2 2 2 2 2 2 1 8 2 2 2 2 2 2 10 2 2 2 10 2 2 2 2 2 8 2 2 2 2 2 2 10 2 2 2 2 2 2 2 2 2 9 8 2 10 10 2 2 8 2 2 2 2 2 2 2 2 8 2 10 2 2
left_child=2 3 4 -2 5 6 7 -1 -9 10 -3 12 13 -8 15 16 -12 -18 31 -14 21 22 23 24 -11 26 27 -4 71 -30 -31 -6 52 37 35 38 -37 -13 39 -7 41 -23 43 45 -25 -20 47 -44 49 -22 -43 75 -24 54 56 -56 -28 59 -59 60 -50 -61 63 64 65 -27 67 -42 -48 70 -16 -29 -40 -58 -49 -36 -55 -78 -79 -68
